feature_dependencyWord,dim1,dim2,dim3,dim4,dim5,dim6,dim7,dim8,dim9,dim10,dim11,dim12,dim13,dim14,dim15,dim16,dim17,dim18,dim19,dim20,dim21,dim22,dim23,dim24,dim25,dim26,dim27,dim28,dim29,dim30,dim31,dim32,dim33,dim34,dim35,dim36,dim37,dim38,dim39,dim40,dim41,dim42,dim43,dim44,dim45,dim46,dim47,dim48,dim49,dim50,dim51,dim52,dim53,dim54,dim55,dim56,dim57,dim58,dim59,dim60,dim61,dim62,dim63,dim64,dim65,dim66,dim67,dim68,dim69,dim70,dim71,dim72,dim73,dim74,dim75,dim76,dim77,dim78,dim79,dim80,dim81,dim82,dim83,dim84,dim85,dim86,dim87,dim88,dim89,dim90,dim91,dim92,dim93,dim94,dim95,dim96,dim97,dim98,dim99,dim100,dim101,dim102,dim103,dim104,dim105,dim106,dim107,dim108,dim109,dim110,dim111,dim112,dim113,dim114,dim115,dim116,dim117,dim118,dim119,dim120,dim121,dim122,dim123,dim124,dim125,dim126,dim127,dim128,dim129,dim130,dim131,dim132,dim133,dim134,dim135,dim136,dim137,dim138,dim139,dim140,dim141,dim142,dim143,dim144,dim145,dim146,dim147,dim148,dim149,dim150,dim151,dim152,dim153,dim154,dim155,dim156,dim157,dim158,dim159,dim160,dim161,dim162,dim163,dim164,dim165,dim166,dim167,dim168,dim169,dim170,dim171,dim172,dim173,dim174,dim175,dim176,dim177,dim178,dim179,dim180,dim181,dim182,dim183,dim184,dim185,dim186,dim187,dim188,dim189,dim190,dim191,dim192,dim193,dim194,dim195,dim196,dim197,dim198,dim199,dim200,dim201,dim202,dim203,dim204,dim205,dim206,dim207,dim208,dim209,dim210,dim211,dim212,dim213,dim214,dim215,dim216,dim217,dim218,dim219,dim220,dim221,dim222,dim223,dim224,dim225,dim226,dim227,dim228,dim229,dim230,dim231,dim232,dim233,dim234,dim235,dim236,dim237,dim238,dim239,dim240,dim241,dim242,dim243,dim244,dim245,dim246,dim247,dim248,dim249,dim250,dim251,dim252,dim253,dim254,dim255,dim256,dim257,dim258,dim259,dim260,dim261,dim262,dim263,dim264,dim265,dim266,dim267,dim268,dim269,dim270,dim271,dim272,dim273,dim274,dim275,dim276,dim277,dim278,dim279,dim280,dim281,dim282,dim283,dim284,dim285,dim286,dim287,dim288,dim289,dim290,dim291,dim292,dim293,dim294,dim295,dim296,dim297,dim298,dim299,dim300
quality_reviews,0.019531,0.2414547,0.30127,0.08438107,0.1311035,0.1429448,0.36914,0.1851804,0.0524902,0.0395506,-0.22186304,-0.3701177,0.063477,0.1779787,-0.352539,-0.3798826,0.0800781,0.215118096,0.0692139,0.098632,-0.3657224,-0.2114256,0.038086,0.553711,-0.0913088,-0.0437012,-0.0396118,-0.0898433,-0.0924073,0.2031245,0.19647248,0.0753174,0.2363284,-0.1132817,-0.0637205,-0.263184,0.0476074,0.0458989,-0.0966794,0.005859,-0.0339966,0.1923825,-0.079102,-0.4118649,0.0913696,-0.240234,0.037109,0.350586,0.21569843,0.0483399,-0.1867679,0.156494,0.0332031,-0.55957,0.12313808,-0.138916,0.135498,0.09668,0.0961916,-0.13885517,0.3193363,0.030273,-0.178711,0.073242,0.0852051,-0.2128906,-0.006836,-0.08120733,0.460937,0.1713867,-0.1279297,-0.01123,0.1286624,-0.19046014,0.027344,0.0561519,-0.1118163,-0.2890623,0.1516113,-0.216797,0.0169067,0.09933522,-0.180664,-0.267089,-0.02221676,0.10858148,-0.098633,0.011719,0.2675778,0.469727,0.3637693,0.1901853,-0.1860352,-0.1445317,-0.1376951,-0.038086,0.064454,0.24780261,-0.1611328,-0.1223144,0.038086,0.1640622,-0.282226,0.1311035,0.0827637,0.2145995,0.507812,0.261963,-0.175293,0.18457,0.008301,0.076172,-0.2622075,0.1198731,-0.232422,-0.1632083,0.1469722,-0.455078,-0.4777836,-0.0773926,-0.126953,-0.052735,0.0375979,-0.0625,-0.349609,0.043457,-0.337891,-0.1541747,0.148438,0.2119748,0.486694,0.509765,-0.041016,-0.120361,0.095704,-0.351563,0.2189943,-0.280274,-0.064453,0.1704098,-0.2731938,-0.1497804,0.1745609,-0.1777344,-0.3209226,0.1662598,-0.033203,-0.0301513,-0.0625,-0.079336204,-0.1645508,0.373535,0.050293,-0.199707,-0.2529298,0.142578,0.02453613,-0.06994631,0.0,-0.1633304,-0.236329,-0.225098,0.1291502,0.015625,0.143311,0.0524902,-0.31543,-0.1748052,-0.0621338,-0.083008,-0.1638183,0.1342773,-0.092773,-0.083008,0.2358401,0.1152343,0.0014649,0.0625,-0.014648,0.1135254,0.023437,-0.0268555,-0.086915,-0.1239013,-0.0874023,-0.0151367,-0.011718,-0.15057348,-0.2714844,0.050293,-0.0558472,-0.0356446,-0.0639653,0.2414548,-0.2802734,0.009273526,-0.043945,0.3124997,0.1513672,-0.2226561,-0.0739746,-0.262695,-0.0629882,-0.00155639,-0.1938479,0.0577393,-0.1694338,-0.296387,0.241211,-0.494141,-0.642578,-0.2517696,-0.0786133,-0.1215816,0.5363157,-0.2314457,0.107422,-0.5463867,-0.264649,0.3027349,0.041748,-0.2419437,0.138672,0.3076171,0.0895996,0.1154785,0.108398,0.1022949,0.243652,0.5051275,-0.1978145,0.214844,0.03418,0.1665035,-0.321777,0.1604006,-0.435547,-0.0040283,-0.166016,-0.1784671,-0.0078125,-0.1445312,-0.1997066,0.122986,0.0878902,0.1374515,0.0380856,0.1215823,-0.4298098,-0.267578,0.1760251,-0.1156008,0.1037598,0.10641478,0.1942144,-0.0759277,-0.079834,-0.1473385,0.0253906,0.1000978,0.106555626,-0.458984,0.16647326,0.03424077,0.2358401,0.0820311,0.2783202,-0.1689451,0.244141,-0.010254,-0.260742,0.000488,-0.06634524,-0.1865233,-0.278321,-0.0893553,0.04486089,0.061524,-0.294922,0.09375,-0.3164061,-0.0083003,0.289062,-0.108398,-0.433594,0.073242,0.1918949,-0.1669922,0.0786137,0.0690914,-0.1791994,-0.055664,-0.4033202,-0.2962643,-0.0859375,0.2475585,-0.1372073,-0.035157,-0.038600881,-0.0917358
quality_sound,-0.2323002,0.27804528,0.242188,0.06973267,0.235107,0.1516118,0.149658,-0.0633545,-0.0268555,0.0395506,-0.098633,-0.021485,0.1444096,0.1086428,-0.2265623,-0.05899052,0.097168,-0.114258,0.0858154,0.060546,-0.003418,-0.3803716,-0.149282393,0.3461919,-0.0947268,-0.022461,0.2000729,0.2265627,0.0545654,0.0483398,0.25408948,0.1149902,0.1923824,-0.309571,0.0666504,-0.0827641,-0.1081543,-0.043457,-0.0507812,-0.084473,-0.1948247,-0.0145874,-0.2631837,0.0270996,-0.0273433,-0.458984,0.305176,0.13623,0.01049803,-0.1508789,0.2341311,0.1364745,-0.06082155,-0.1342769,-0.11084,-0.1782227,0.1369629,0.036133,-0.00293,0.045898,0.2976078,0.328125,-0.220703,0.09082,-0.0483399,0.2783204,-0.17077668,-0.23648053,0.407226,0.1230469,0.0742192,-0.0405273,-0.231445,-0.0986327,0.060547,-0.0505371,-0.244141,0.0708007,-0.0197754,0.1826176,-0.0596924,0.01559452,-0.1787109,-0.0787349,-0.05249026,-0.17169152,-0.104493,0.15799744,0.3017578,0.2031252,0.521484,0.1571653,0.0781254,-0.0327149,-0.010254,-0.2568361,-0.24392663,0.088867,0.103027,0.1186523,0.020508,-0.088868,-0.0395507,-0.177979,0.1994633,0.013794,-0.201172,0.097168,-0.125,0.19043,0.291504,-0.013671,-0.252686,0.1296387,-0.049804,-0.0668948,0.1850582,-0.353516,0.3054204,0.0166016,-0.212891,0.425781,-0.1188965,0.0273441,0.273438,0.0200195,0.089843,0.029297,-0.280273,-0.0298462,0.239624,0.418457,-0.2083743,-0.0319824,-0.1179806,-0.2734377,0.2026368,-0.1364747,0.0405275,-0.1142582,-0.2058108,0.039062,0.1804199,-0.2788084,0.1322024,-0.026123,-0.001953,-0.0256347,0.0439452,-0.271718604,0.0258791,0.1955564,-0.0327149,0.096982034,-0.1896973,-0.1965336,0.17981,0.07849119,-0.02832,-0.0556644,-0.13086,-0.237305,0.0617672,0.328125,0.096436,0.1364742,-0.1486815,0.054687,-0.1317142,-0.26513647,-0.013672,0.2138671,0.1098633,-0.1540525,0.2543941,-0.1699219,-0.2270505,-0.0664066,-0.045898,0.0102539,-0.083985,0.0170894,0.024414,-0.0190429,-0.0844726,-0.0310059,-0.1601559,0.097657,-0.2797852,0.1262207,0.1137698,-0.0322267,-0.1081548,0.1379398,-0.19128412,-0.316165674,0.311523,0.0761717,0.1669922,-0.2558591,-0.0900879,-0.035156,0.223633,-0.04345702,-0.0430908,0.1500249,-0.2551271,-0.1348268,0.237305,-0.0400393,-0.09964002,-0.1160276,-0.2988283,0.1718754,0.1837767,-0.0288086,0.4147952,0.0596314,0.114258,0.1425782,-0.0488279,-0.0809326,-0.1516117,0.3256835,-0.0932621,0.1538086,-0.0449222,-0.0219727,0.0917967,-0.1589355,-0.2290035,-0.0989993,0.404297,-0.0751955,-0.040039,-0.0930174,-0.022461,0.3319092,0.0742186,0.1955569,-0.3208007,-0.293457,0.2368164,0.11436478,-0.1481934,0.0627445,-0.1586914,-0.1948247,-0.464844,-0.1871337,0.0341797,-0.1033938,0.0992432,-0.13674902,-0.0213623,0.1613772,-0.149292,0.03497314,-0.0854493,0.242188,-0.117188,-0.1787107,0.09713726,0.0781251,0.5,-0.197266,0.2724612,0.179688,0.431641,0.0566402,-0.1730955,0.251953,-0.39056434,-0.1469726,-0.0605473,0.1002197,0.0986329,-0.0893551,-0.1166994,-0.0456546,0.0214844,-0.000976,0.265625,0.1708986,-0.2719729,0.1950685,-0.0795901,0.4243164,0.036622,-0.069336,-0.0571291,-0.0625,-0.32217395,0.053833,-0.01745605,0.29461657,-0.0458985,-0.026368,-0.020534481,-0.1810911
subwoofer_need,-0.11322018,-0.288086,-0.0659184,-0.2141111,0.800782,-0.2783201,-0.373047,0.3134765,0.1723633,0.34120966,0.0377198,0.0428467,0.36175575,-0.308594,0.939453,0.1254881,-0.0183105,0.344727,0.2858885,-0.3914797,0.522461,0.655274,-0.357422,-0.0725097,0.25622527,-0.2578125,-0.53347778,0.145997,-0.2568362,-0.3168944,-0.1837163,0.102539,-0.1069332,0.359619,-0.557129,-0.2800297,0.123047,-0.2080076,-0.473144,-0.4492187,-0.0543213,0.3408203,0.0527341,-0.012207,-0.099854,-0.186523,0.122437,-0.1005857,0.356445,-0.52633642,-0.202148,-0.2158203,0.181641,-0.0395508,0.2016602,0.2736815,0.0781254,-0.0402833,0.1757811,0.2758788,-0.136719,0.0217285,-0.150391,-0.057129,-0.046875,-0.1376956,0.363281,0.013671,0.019531,0.436523,0.3056643,-0.1254883,0.1547857,-0.374023,0.020508,-0.301757,-0.429688,-0.497071,0.0922851,-0.645508,0.081279805,-0.0078125,-0.1633299,0.0428466,-0.1533201,0.3583989,0.27832,0.292969,-0.475586,-0.222168,-0.3876958,-0.637695,-0.2785646,0.527343,-0.3322758,-0.125,-0.0405277,-0.0592041,0.2272945,-0.269043,0.1414792,0.4058843,0.0561528,-0.394532,0.1069335,0.3164059,0.634766,0.3168947,0.1447751,-0.575196,-0.021485,-0.05282594,0.3071293,0.084961,-0.1630859,-0.12237511,-0.3916018,0.42935168,-0.0604248,-0.7641607,-0.16135381,0.1579591,-0.2060551,0.303711,0.1955564,0.266602,-0.225586,0.0126954,0.1000977,0.1781008,-0.01931763,-0.0303955,-0.251953,0.525147,0.2905273,0.5161135,0.059571,-0.0986328,0.0808105,-0.023438,0.253662,-0.176758,-0.2768555,-0.1738286,-0.708984,-0.2294924,0.1685794,0.682617,-0.21936029,0.671875,0.0836186,0.092774,-0.3546139,0.313477,0.3413085,-0.3071288,-0.119141,-0.2622069,0.0874027,0.464844,-0.519531,0.17434661,0.1063233,-0.0622561,0.2807616,0.026367,0.29248,0.2895506,-0.55957,0.434571,-0.390625,-0.433594,0.2451176,0.0385738,-0.1896971,0.11935384,0.012695,-0.3126831,-0.530762,-0.1992186,-0.091797,0.3686522,-0.2216799,0.18396,0.12228394,0.022461,0.2089846,0.3144536,0.05664,-0.1992185,-0.2890629,-0.40147412,-0.5781248,-0.1430052,-0.0251465,0.69043,-0.06989292,0.04541,0.2661132,0.361328,0.0872803,-0.2734182113,-0.1096194,0.4687498,0.0032959,-0.5318609,-0.5034182,-0.2871703,-0.3037112,0.1337888,0.0434574,0.302246,-0.4873047,-0.1337893,-0.41504,0.319885,-0.2180176,-0.030761,-0.386719,0.0014648,-0.15332,0.08209232,0.3686521,0.5913087,-0.2851567,0.0053711,-0.1242676,0.1699222,-0.01373296,-0.2026372,-0.24652131,-0.0815432,0.0229492,0.120712288,-0.2446288,0.011231,-0.293457,0.0273437,0.001465,-0.3522947,0.0778809,-0.1945798,-0.3928225,-0.5,-0.3681638,-0.2080082,0.1818852,0.197266,0.05459599,-0.327637,0.6229246,0.069336,0.0952144,-0.2073971,0.2109374,0.0185547,0.174805,-0.216308,0.3217776,-0.293946,0.311524,-0.08937077,-0.3288579,-0.2280275,-0.0673832,0.182617,-0.642578,-0.6661377,0.1416014,0.0864258,-0.493164,-0.22613569,-0.1330569,-0.591797,-0.1018062,0.1826169,-0.18536383,0.19009437,-0.077148,0.3066407,0.078614,-0.105469,0.035156,0.080079,0.009766,-0.1224363,0.1270754,-0.57330372,0.3203127,-0.0563354,-0.1430663,0.4838866,-0.06246953,0.0422364,0.2799686,-0.459961,-0.2219238,0.0958252,-0.0056153,0.3022462
subwoofer_thumping,-0.0934448,-0.384766,-0.2045903,-0.019531,0.3652349,-0.013672,0.082032,0.327637,0.1184082,-0.09375,0.0797121,-0.1442874,0.135743,-0.504883,0.670899,0.19277935,-0.0371094,0.275391,0.068359,-0.3759768,0.120118,0.123047,-0.097656,0.2153323,0.420898,-0.036133,-0.325195,0.427735,-0.398926,-0.2880858,-0.061524,0.102539,-0.036132,-0.212647,-0.348633,-0.437012,0.3542484,-0.1655274,-0.541992,-0.5644531,-0.12854,0.660156,-0.183594,-0.0202636,-0.1806646,-0.3349609,0.2241216,-0.1079099,-0.09668,-0.5878904,-0.27832,-0.638672,0.0408936,-0.0673828,-0.015625,0.2680662,0.237793,0.295654,0.141601,0.459961,-0.136719,0.0073242,-0.1875,0.283203,0.16963915,-0.2542728,0.286133,0.20539812,-0.2255863,0.2532955,0.119141,0.089355,0.074219,-0.635254,-0.037109,-0.37915,-0.2167358,-0.050781,0.0283203,-0.4719236,0.3515623,0.4877928,-0.347656,-0.0633545,-0.22314434,0.189454,0.27832,0.564454,-0.085938,-0.471192,-0.174317,-0.645507,-0.09082,0.003906,-0.138672,-0.574707,0.0073242,-0.1256102,0.1823735,-0.0361331,-0.1016846,0.43530323,-0.1269531,0.000976,-0.1601562,0.2393795,0.202149,0.24200452,0.014648,-0.145508,-0.424805,-0.1208496,0.1010742,0.111817,-0.1845699,0.00354009,-0.2375491,0.083984,0.0716552,-0.550782,0.001953,-0.022949,-0.2663578,0.756836,0.2297364,-0.162109,-0.025391,0.5556641,-0.0859379,0.2846682,0.1448363,-0.0577393,-0.495118,0.590821,0.4174805,0.052735,0.1555179,-0.1118164,0.5395504,-0.21875,0.430664,-0.225586,-0.2336426,0.133789,-0.5007324,-0.3481448,0.275391,0.4997559,-0.117187,0.5056156,-0.1888424,0.4086917,-0.265625,0.1267089,0.2871092,-0.2108153,0.03125,-0.3602294,-0.3530273,0.580078,-0.044922,0.2177731,-0.0112305,-0.0522464,0.2260741,0.159179,0.2070313,0.412109,-0.3271483,0.3056646,-0.446778,-0.334961,-0.1552734,0.010742,-0.069824,0.1831051,0.27832,-0.3057861,-0.494141,-0.1064456,-0.3063966,0.2583007,-0.345703,0.2392578,0.08517454,-0.355468,0.0390627,0.1606446,0.1613768,-0.1699218,-0.442871,-0.107422,-0.5742185,-0.291992,0.0891115,0.442383,-0.04035182,-0.1870118,0.2001952,-0.024414,0.2348631,-0.0776169113,-0.317383,0.527344,-0.19183362,-0.5366216,-0.4641116,-0.29370105,-0.2412112,0.1020508,0.1240234,0.15332,-0.6430664,-0.1403811,-0.4316411,0.502929,-0.22955322,0.0690923,-0.058594,0.2548831,-0.118164,-0.19964618,0.3066404,0.63086,-0.3994146,0.0949707,-0.1008301,0.1275638,-0.34002686,-0.112915,-0.124024,-0.0693361,0.297363,0.0715327,-0.1652831,-0.097656,-0.212891,-0.1291503,0.001953,-0.3896482,-0.1430661,-0.03240964,-0.3669436,-0.492188,-0.49414,-0.0031738,-0.200195,0.349609,-0.0739745,-0.594727,0.5804441,-0.003907,0.0966792,-0.1976321,0.2487792,-0.0844726,0.4384764,-0.32379113,0.136719,-0.2299807,-0.022461,-0.23097267,-0.572266,-0.2158205,0.234863,0.2697755,-0.5893555,-0.769531,-0.1884766,0.1118164,-0.3486332,-0.09771769,0.04501342,-0.110351,0.124024,0.309082,0.12811317,-0.11264063,-0.3134763,0.214844,-0.228515,-0.1850591,0.389648,0.109375,0.011719,-0.1756589,-0.21582,-0.5029302,0.286133,-0.0492554,-0.035156,0.498535,-0.04757693,0.2109371,0.3676762,-0.289063,-0.2522583,0.3726807,-0.0280762,-0.043945
subwoofer_huge,-0.293457,-0.305176,-0.0708012,-0.370117,0.4804693,0.153321,-0.190540064,0.555664,0.0871582,0.176758,-0.1170654,0.1916506,0.2861332,-0.0781253,0.948242,0.2531736,-0.1469726,0.5063477,0.493164,-0.5000003,0.3284916,0.4438482,-0.2988282,-0.1621097,0.2208249,0.029297,-0.175781,0.2450567,-0.3725588,-0.271484,-0.061524,0.131348,-0.359375,-0.0246582,-0.45629895,-0.184571,0.30351295,-0.2480466,-0.646484,-0.78125,-0.124634,0.374023,-0.115235,0.2111813,-0.0725103,-0.347168,0.115479,-0.1796872,0.2226559,-0.285156,-0.456543,-0.330078,0.124023,0.1298831,0.490234,0.332519,0.0817875,0.1052246,-0.085938,0.477539,-0.003906,-0.2382814,-0.37887611,-0.1208495,0.060546,-0.2229007,0.0976562,0.1215816,0.040039,0.2048336,0.3909915,0.080566,0.063477,-0.6015625,-0.010742,-0.5068356,-0.1433105,-0.432617,0.2888187,-0.4824216,0.095337,0.135498,-0.062744,-0.0047608,-0.182617,0.699219,0.2175291,0.207032,-0.2792971,-0.0566407,-0.3642583,-0.4404293,-0.166992,0.399414,-0.2978519,-0.554688,0.0131835,-0.0831302,0.0998535,-0.0938724,0.0560302,0.3681646,-0.1254883,-0.017578,0.0327149,0.003906,0.291504,0.375,-0.041992,-0.064453,-0.3386233,0.0861815,0.0178223,0.182129,-0.3095699,0.07391359,-0.29739405,0.3801268,0.055664,-0.873047,-0.205322,0.1372071,-0.140625,0.319336,0.0404053,-0.058593,-0.5034183,-0.0502929,0.0106201,0.06543,-0.0338745,-0.228638,-0.251953,0.4150396,0.154297,0.545899,0.223389,-0.0449829,0.1381836,0.2314452,0.456055,-0.3777463,-0.378906,-0.2109379,-0.40918,-0.251221,0.024903,0.362305,-0.123047,0.4714359,-0.1585694,0.319092,-0.426025,0.0517577,0.4011229,-0.417969,-0.168946,-0.189453,0.1313477,0.3879397,-0.168945,0.1140134,0.07485963,-0.0744632,-0.009766,-0.053711,0.066406,0.383789,-0.532226,0.1752935,-0.4931643,-0.4562991,-0.2324214,0.296875,-0.1713865,0.1918941,0.0,-0.270752,-0.65649464,0.0297852,-0.3576661,0.454101,-0.19751,0.1727295,-0.02346806,-0.3247066,0.243164,0.0687256,0.2351683,-0.0786132,-0.3455814,-0.3847657,-0.751953,-0.1984862,0.1223145,0.6193848,0.13127918,-0.0852051,0.470703,0.1477054,-0.1401369,-0.2558392113,-0.34961,0.585937,-0.21722462,-0.79004,-0.4560549,-0.3388671,-0.0561524,-0.0771482,0.1660154,0.099609,-0.5368042,-0.0888674,-0.4526372,0.2927244,-0.574219,0.255372,-0.5603027,0.0341797,-0.3737793,-0.05999758,0.412109,0.794922,-0.166993,0.0809326,0.0871586,0.332032,-0.05267336,-0.0280762,-0.075196,-0.359375,0.0397949,0.1394038,-0.047851,0.290039,-0.3880615,0.0932617,0.11730957,-0.135742,0.1469727,-0.04040525,-0.2971194,-0.535156,-0.2819822,0.2431638,-0.125976,0.5493164,0.05815892,-0.4028322,0.47998,0.02539,-0.030274,-0.1712651,0.015625,0.0070801,0.3744506,-0.476562,0.617188,-0.1281741,0.2124027,0.18113733,-0.3115239,-0.2680665,0.044433,0.31762708,-0.581543,-0.764648,-0.1547856,-0.0356445,-0.1796879,-0.18121369,-0.0822759,-0.200195,-0.0400386,0.1430662,0.04608157,0.11538737,-0.1978757,0.4384767,0.143067,-0.3535161,0.293945,0.364258,-0.1628414,-0.318359,0.190674,-0.469727,0.559571,0.1238406,-0.1411132,0.40350329,0.09280397,0.1008301,0.460938,-0.2982183,-0.2287598,0.0906983,0.0673828,0.398438
quality_love,-0.362793,0.423828,0.0937501,-0.15780633,0.222412,0.0468755,-0.125977,0.2886964,0.2084961,-0.081055,-0.1885989,-0.2070317,0.153687,0.1738283,0.059571,-0.2333986,0.011719,0.058593,0.01916504,-0.0629888,-0.0419922,-0.1552734,-0.378906,0.510743,-0.320313,-0.046875,-0.0797119,-0.0415043,-0.1280514,0.2456055,0.10223348,-0.080566,0.0147094,-0.307618,-0.0979005,-0.2187504,-0.2858889,0.0273442,0.0383301,-0.46875,-0.2329097,0.2021485,-0.2875978,-0.0570069,0.1840817,-0.231445,0.075195,0.1237789,-0.03002927,-0.0842285,0.1604001,0.040039,0.0415043,-0.248962,0.0288082,-0.2016605,0.09375,-0.025878,0.1336214,-0.1116945,0.016602,0.0874023,-0.2729492,-0.258789,0.0639648,0.1337891,0.044922,-0.00370789,0.3015134,-0.0981442,-0.3437498,-0.0478515,0.224121,-0.2176513,0.103516,0.0087891,0.055664,-0.050293,-0.1433107,-0.068359,0.3416749,-0.22781378,-0.1752929,0.121583,0.30419934,-0.09210202,0.140625,-0.094726,-0.1796872,0.0668947,0.29473852,-0.091797,0.0839844,0.1684573,0.056153,-0.059082,-0.4375,0.286621,0.022461,0.1020513,0.411133,0.017578,-0.2221678,0.05175777,-0.0925297,0.040035263,0.1535642,0.2474366,-0.0924073,0.030274,0.330567,0.226563,-0.34668,0.0579834,-0.294922,-0.2084964,-0.145752,-0.035156,-0.0480957,-0.2548827,-0.3818361,0.2121578,-0.0536499,-0.055664,0.0644532,0.3940427,-0.1281742,-0.1414794,0.076172,-0.0731812,0.168335,0.450195,-0.102539,-0.087646,-0.1896969,-0.207451054,0.1748048,-0.0698243,-0.0625,-0.0693362,0.0559082,-0.2504884,0.102295,-0.0273437,0.2435304,-0.04348751,0.2175291,-0.1359863,0.274414,0.279062396,-0.3657229,-0.064453,-0.197754,-0.01709,0.114258,-0.354493,0.0924072,0.07897949,-0.060547,0.135742,-0.2895513,-0.1691894,0.0083008,-0.007813,-0.0794678,0.1403812,-0.310547,-0.076172,0.2071538,-0.388672,-0.2094726,0.0878906,0.120605,-0.2204587,0.0445557,-0.2285157,-0.0925293,-0.1975101,-0.047851,0.1926272,0.118164,0.1904294,0.0878902,-0.02548215,0.0417481,0.082031,-0.033203,0.022461,-0.294434,0.0449219,-0.1518552,-0.269043,-0.2114263,-0.2351072,-0.354492,-0.124759674,-0.044922,0.0214843,0.1743164,0.1171879,-0.0031738,0.1904301,0.083984,0.18090808,-0.0545654,0.0076905,-0.03125,-0.271973,0.0429687,-0.1380618,0.000976,-0.1921996,-0.04013067,0.1811524,0.1837767,0.0947263,0.157227,-0.0424805,0.015625,0.07942202,0.1669922,-0.1340332,-0.1563724,0.135254,0.3203129,0.1215821,-0.0698246,0.1889646,0.1909178,0.1843265,0.061524,-0.2138674,0.1787723,-0.2045895,-0.583985,0.0340576,-0.025879,-0.01443479,0.173828,0.00656129,-0.140625,-0.20446771,0.1381834,-0.108887,0.0761722,-0.4123535,-0.1301269,-0.0151368,-0.29834,-0.020508,-0.0520019,-0.2523198,-0.2148436,-0.14456202,-0.0211181,0.1164552,0.032227,0.2462155,0.2602537,0.0390626,0.1982419,-0.1884763,0.01705936,-0.1308592,0.421387,0.14038073,-0.1733398,-0.2308347,0.0541992,-0.2558598,-0.2133787,-0.038086,-0.14447034,-0.1738283,-0.28711,0.3178707,0.2460943,-0.2207028,-0.044922,0.1408692,-0.2255861,-0.0336909,0.28125,0.03125,-0.494141,0.381836,0.2993169,-0.2416996,0.2270512,0.0395504,-0.1135256,-0.014649,-0.163086,0.4498287,0.0241699,0.578125,-0.0786133,0.018554,0.123752719,-0.0790405
quality_speakers,-0.1979984,0.26525841,0.0395509,-0.16268933,-0.045166,0.1665044,0.1900633,-0.1829836,0.0297852,0.1368406,-0.2871096,-0.2329107,0.1514897,0.039551,-0.541015,-0.1865236,0.027344,0.022461,0.0076904,-0.1726079,-0.2426754,-0.6108396,0.09668,0.4267583,0.007812,-0.1085206,0.2186279,0.0454102,0.1800536,0.2114255,0.08856198,-0.051758,0.4072264,-0.31543,-0.2268065,0.107421,-0.0535888,0.003418,0.0749512,0.214843,-0.0146484,-0.1513675,-0.21893323,-0.1271973,0.2456057,-0.216308,0.479492,0.294433,0.09313943,0.0266113,0.1125488,0.413086,-0.1660157,-0.540039,0.05957,-0.0740357,0.3293458,-0.1904293,-0.09375,0.135742,0.2238773,0.381836,-0.083984,0.181641,-0.0493169,0.2792974,-0.0947269,-0.58901953,0.1699216,-0.1264652,-0.0095215,-0.1223144,-0.083008,-0.061523,0.043945,-0.0476074,-0.0781249,-0.2041013,0.1311035,0.2918705,-0.2325441,-0.11453278,0.0219724,-0.1469722,0.13720734,-0.00815582,-0.1943363,0.2519534,0.1036377,0.0720217,0.1967771,0.482422,-0.022461,0.1430664,-0.0556638,-0.056641,-0.302734,0.24740588,0.062012,0.0249024,0.439453,0.1647946,-0.0734862,0.215576,0.08667,-0.2697755,0.0224607,0.342774,-0.4238279,0.27832,0.351075,0.3754888,-0.3232427,0.1032715,0.1838383,-0.014649,-0.0679932,-0.1303713,-0.1779786,0.1015623,-0.211426,0.16760216,-0.1445313,0.1831058,0.077881,0.3393557,0.038086,-0.001953,-0.200684,-0.1117552,0.0516358,0.42041,-0.2523196,-0.12915,-0.12725793,-0.53418,0.097656,-0.048828,0.1923829,0.2128908,-0.0612793,-0.336914,0.0805664,0.2944336,-0.2105716,0.0529786,-0.276367,-0.0618896,-0.049805,-0.230703604,-0.2319339,0.124023,0.118652,0.0809326,-0.2514649,-0.3212894,0.48938,0.34655799,-0.0878906,0.112304,-0.124024,-0.2006835,-0.1491699,0.4985349,-0.0401611,-0.1437988,-0.2529296,-0.3173833,0.039917,-0.2553708,0.143555,-0.2011719,0.254395,-0.012695,0.06919861,0.0166013,-0.052124,-0.0727543,0.210938,0.0895996,-0.0917973,-0.2041016,0.1601558,-0.1019287,-0.4250493,-0.228516,-0.2587887,0.248047,-0.1684571,0.1132812,0.0239257,-0.0302735,0.030273,0.0056152,-0.2319335,-0.217532674,0.421875,0.0595703,-0.0214846,-0.1418457,-0.1857913,0.1423955,-0.0307617,0.02343748,-0.0463867,0.1363529,-0.387696,0.071777,0.195313,-0.38086,-0.0767824,0.2150274,0.1923827,0.2192384,0.1271367,-0.3173827,0.26709,0.4418943,-0.14405829,-0.0986331,0.012207,0.0529783,-0.1960453,0.32666,0.1064453,0.0916748,-0.301758,0.1347656,-0.108399,0.2521975,0.027344,-0.0988772,0.456055,-0.0610355,-0.047852,0.3454586,-0.345704,-0.0631103,0.1403807,0.1750489,-0.142334,-0.2438964,0.2192384,0.0886232,-0.2939458,0.0324707,-0.1889644,-0.0920411,-0.4985354,-0.322266,0.1091309,-0.2015378,0.5253904,0.27926598,0.1512454,0.0910642,-0.248047,0.1993405,-0.1489263,0.0820314,-0.129883,-0.2026365,-0.12063574,0.1381836,0.357178,-0.16211,-0.2294918,-0.402344,0.329102,-0.2275388,0.071289,0.276367,0.09820556,-0.0085449,-0.512696,-0.0620113,-0.0302734,-0.14530907,0.02539,-0.0363769,-0.1860351,0.262208,0.3376465,0.06543,-0.30500818,0.3232424,-0.0346681,0.3051754,0.0986332,0.0644527,-0.336914,0.0395506,-0.3044432,-0.0482178,-0.1186519,0.3383788,0.1152344,0.091796,-0.141872281,0.0040894
quality_played,-0.3012699,-0.033204,0.0429688,0.03445437,-0.23169,0.1314702,0.2204588,0.1558834,0.0185547,0.008789,-0.2299807,-0.149415,0.338868,0.2099611,-0.272949,-0.1381836,-0.071289,-0.106446,0.0911865,0.096679,0.0727536,-0.3530276,-0.1214599,0.4560552,-0.272949,-0.0048829,0.1180419,0.1982427,0.0662841,-0.0312505,-0.08087162,0.076416,-0.0212403,-0.067872,-0.1643065,-0.353516,-0.1086426,0.0742192,-0.0908204,-0.457032,-0.1987307,-0.020874,-0.2807618,0.0651855,-0.0581053,-0.353027,0.436523,0.487304,-0.11730957,-0.0248413,0.2185061,0.064941,-0.066230786,-0.011718,0.0931393,0.2700195,0.0194092,-0.0756832,-0.011719,-0.1684572,0.582032,-0.175781,-0.359314,0.115234,0.0539551,-0.1503906,-0.1169437,0.07260127,0.159668,-0.0117187,-0.3281248,0.111328,0.1166385,-0.318848,0.045898,0.1040039,-0.258301,0.1621097,0.0932617,0.2080082,0.1239013,-0.06521608,-0.2226566,-0.059814,-0.06982426,0.01177978,-0.089844,0.0864261,-0.0219722,0.0444338,0.2167966,0.254883,-0.0161133,-0.0751957,-0.332519,0.075195,-0.2934567,0.3159178,0.156738,0.0874023,0.427734,-0.057618,-0.0876464,0.0308837,0.1276856,0.2839355,0.2050779,0.2856447,-0.0300293,-0.14288324,0.0885013,0.4143071,-0.183106,0.039012931,0.036133,-0.0610355,-0.1928708,-0.1762698,-0.3098146,0.1621093,-0.3649904,0.186401,-0.0129395,-0.1875,0.338867,0.138916,-0.2446293,0.025391,0.021973,-0.01794438,0.1239014,0.495117,-0.1474612,0.02349855,-0.0444332,-0.129883,0.3129884,-0.280274,0.402344,0.1503906,0.1047362,-0.1684419,-0.1975101,0.0903316,0.1390384,-0.5368652,0.1379393,-0.1335449,0.358398,-0.015676504,-0.1428223,0.2543733,0.099121,-0.004883,-0.163967195,-0.3305668,0.161255,0.36022999,-0.353516,-0.000977,-0.517579,-0.0761718,-0.4128418,0.3500974,-0.1003418,0.0603027,-0.1975096,-0.1376958,-0.1229252,-0.2913816,0.15918,0.1684571,-0.237793,-0.0966794,-0.0527339,-0.1101685,0.0649415,-0.03711,-0.111328,0.06604,-0.44043,-0.1467286,0.042968,-0.2156979,-0.0130615,-0.217773,0.021485,-0.012695,-0.1069337,0.1501465,-0.1420899,-0.1811524,-0.329102,0.0378418,-0.094726,-0.177493674,-0.054688,0.0129394,-0.1142576,-0.1450195,-0.1413574,0.16217085,-0.0743408,0.03369138,-0.2075199,0.3092039,-0.22876,-0.0959474,0.1542969,-0.230469,-0.298828,-0.4236446,-0.2031253,0.0134277,0.1505737,0.1650393,0.522461,0.2788083,0.15332,0.3730469,0.0664062,0.0871583,-0.253907,0.2535399,-0.0532226,0.0472412,-0.0612797,0.05255128,0.2001952,0.2346195,-0.020507,-0.0566409,0.2502445,0.1630855,-0.2910158,-0.0832524,-0.034668,0.3651122,-0.056641,0.0283203,-0.142334,-0.463867,-0.1030274,0.29834,-0.1367188,-0.2805175,-0.1203613,-0.0803223,-0.4731448,-0.102051,0.0440674,-0.1400148,0.0505371,-0.08938602,0.1346434,-0.04025269,0.007813,0.0823975,0.3022457,0.2216798,0.1206052,-0.320312,-0.17825274,0.1269532,0.3258059,-0.214844,-0.0571289,-0.2009275,0.141399384,-0.1713868,-0.1480711,0.1689453,0.27935766,-0.0299072,-0.444336,0.3315427,0.0781251,-0.1977535,-0.013672,0.3571774,-0.0134277,0.010254,0.3100586,0.1542971,-0.417481,0.506836,0.1904299,-0.2011716,0.31836,0.0312496,0.050781,-0.012696,-0.313655728,-0.1195073,0.065918,-0.027344,-0.0273438,0.078125,-0.137966281,0.015564
quality_sound,-0.2323002,0.27804528,0.242188,0.06973267,0.235107,0.1516118,0.149658,-0.0633545,-0.0268555,0.0395506,-0.098633,-0.021485,0.1444096,0.1086428,-0.2265623,-0.05899052,0.097168,-0.114258,0.0858154,0.060546,-0.003418,-0.3803716,-0.149282393,0.3461919,-0.0947268,-0.022461,0.2000729,0.2265627,0.0545654,0.0483398,0.25408948,0.1149902,0.1923824,-0.309571,0.0666504,-0.0827641,-0.1081543,-0.043457,-0.0507812,-0.084473,-0.1948247,-0.0145874,-0.2631837,0.0270996,-0.0273433,-0.458984,0.305176,0.13623,0.01049803,-0.1508789,0.2341311,0.1364745,-0.06082155,-0.1342769,-0.11084,-0.1782227,0.1369629,0.036133,-0.00293,0.045898,0.2976078,0.328125,-0.220703,0.09082,-0.0483399,0.2783204,-0.17077668,-0.23648053,0.407226,0.1230469,0.0742192,-0.0405273,-0.231445,-0.0986327,0.060547,-0.0505371,-0.244141,0.0708007,-0.0197754,0.1826176,-0.0596924,0.01559452,-0.1787109,-0.0787349,-0.05249026,-0.17169152,-0.104493,0.15799744,0.3017578,0.2031252,0.521484,0.1571653,0.0781254,-0.0327149,-0.010254,-0.2568361,-0.24392663,0.088867,0.103027,0.1186523,0.020508,-0.088868,-0.0395507,-0.177979,0.1994633,0.013794,-0.201172,0.097168,-0.125,0.19043,0.291504,-0.013671,-0.252686,0.1296387,-0.049804,-0.0668948,0.1850582,-0.353516,0.3054204,0.0166016,-0.212891,0.425781,-0.1188965,0.0273441,0.273438,0.0200195,0.089843,0.029297,-0.280273,-0.0298462,0.239624,0.418457,-0.2083743,-0.0319824,-0.1179806,-0.2734377,0.2026368,-0.1364747,0.0405275,-0.1142582,-0.2058108,0.039062,0.1804199,-0.2788084,0.1322024,-0.026123,-0.001953,-0.0256347,0.0439452,-0.271718604,0.0258791,0.1955564,-0.0327149,0.096982034,-0.1896973,-0.1965336,0.17981,0.07849119,-0.02832,-0.0556644,-0.13086,-0.237305,0.0617672,0.328125,0.096436,0.1364742,-0.1486815,0.054687,-0.1317142,-0.26513647,-0.013672,0.2138671,0.1098633,-0.1540525,0.2543941,-0.1699219,-0.2270505,-0.0664066,-0.045898,0.0102539,-0.083985,0.0170894,0.024414,-0.0190429,-0.0844726,-0.0310059,-0.1601559,0.097657,-0.2797852,0.1262207,0.1137698,-0.0322267,-0.1081548,0.1379398,-0.19128412,-0.316165674,0.311523,0.0761717,0.1669922,-0.2558591,-0.0900879,-0.035156,0.223633,-0.04345702,-0.0430908,0.1500249,-0.2551271,-0.1348268,0.237305,-0.0400393,-0.09964002,-0.1160276,-0.2988283,0.1718754,0.1837767,-0.0288086,0.4147952,0.0596314,0.114258,0.1425782,-0.0488279,-0.0809326,-0.1516117,0.3256835,-0.0932621,0.1538086,-0.0449222,-0.0219727,0.0917967,-0.1589355,-0.2290035,-0.0989993,0.404297,-0.0751955,-0.040039,-0.0930174,-0.022461,0.3319092,0.0742186,0.1955569,-0.3208007,-0.293457,0.2368164,0.11436478,-0.1481934,0.0627445,-0.1586914,-0.1948247,-0.464844,-0.1871337,0.0341797,-0.1033938,0.0992432,-0.13674902,-0.0213623,0.1613772,-0.149292,0.03497314,-0.0854493,0.242188,-0.117188,-0.1787107,0.09713726,0.0781251,0.5,-0.197266,0.2724612,0.179688,0.431641,0.0566402,-0.1730955,0.251953,-0.39056434,-0.1469726,-0.0605473,0.1002197,0.0986329,-0.0893551,-0.1166994,-0.0456546,0.0214844,-0.000976,0.265625,0.1708986,-0.2719729,0.1950685,-0.0795901,0.4243164,0.036622,-0.069336,-0.0571291,-0.0625,-0.32217395,0.053833,-0.01745605,0.29461657,-0.0458985,-0.026368,-0.020534481,-0.1810911
feature_love,-0.1477047,0.292969,-0.1782229,-0.15557855,0.379883,0.0,-0.175293,0.26773084,0.1762695,-0.087891,0.02127073,-0.0063476,0.174194,-0.0185547,0.451172,0.026367,0.00586,-0.1179204,-0.14233436,0.0083008,0.04663084,0.1362302,-0.23767071,0.463868,-0.2373049,0.0808106,-0.0073242,0.072754,0.037598,0.1315919,-0.08545,-0.0415035,0.0811157,-0.0803226,0.092773,-0.1474609,-0.2041018,-0.08995058,0.0979004,-0.33642541,0.059571,0.2797852,0.0014648,0.290405,0.0801999,-0.045899,-0.1501466,-0.1159668,0.1585693,-0.0166016,0.0273435,-0.2338867,0.013184,-0.204041,-0.1684571,-0.1447757,-0.0666508,0.139771,0.1931914,0.1929935,-0.114258,-0.1918947,-0.0317382,-0.2788085,-0.088379,0.0783692,-0.001953,0.20640564,0.02810667,0.06543,-0.321533,0.3076175,0.296386,-0.1502683,0.4047855,-0.0786128,0.2451171,-0.0966797,-0.17889417,-0.2568359,0.421387,-0.421875,0.0864257,0.2834478,0.421875,-0.1240234,0.2963871,-0.422851,-0.3652341,-0.0043945,-0.09198048,-0.441406,0.1262208,0.231934,0.18255659,0.13501,-0.1699222,0.03843692,-0.020508,0.0742192,0.2880863,-0.1196287,-0.1188964,-0.22534223,-0.1708989,-0.150150237,-0.1491698,-0.0743404,-0.2008054,0.1115728,0.1772464,-0.18096924,-0.0449217,-0.1444097,-0.339356,-0.2885744,-0.0964356,0.042481,0.0878907,-0.1618651,0.1152339,-0.2253422,0.0811157,-0.0693362,0.0791012,0.3164312724,-0.0661622,0.0567627,0.2163087,-0.1066895,0.1184082,0.0581055,0.2084964,-0.0983882,-0.1228027,-0.051200854,0.0107422,-0.0195313,-0.0961915,-0.0800784,0.224609,-0.1621094,0.1518551,-0.0712893,0.507813,-0.14138831,0.3532711,0.0170897,0.0766602,0.3642579,-0.413086,-0.170898,-0.0200196,-0.2001955,0.2922366,-0.434571,-0.0844728,-0.0468755,0.0734862,0.103516,0.1159668,-0.1096192,0.0894776,-0.4604495,0.1258542,0.0742191,0.042969,0.1723637,0.070313,-0.339844,-0.2504886,-0.0737305,0.0712886,-0.1462407,-0.0916748,-0.273438,-0.01940921,-0.2336421,-0.086914,0.368164,0.125977,0.18457,-0.1223144,0.00701904,-0.0429686,0.241699,0.1248777,0.17553692,-0.0759281,-0.180176,-0.1708981,-0.258789,-0.1101074,-0.387695,-0.289062,-0.1118774,-0.1994629,0.2119136,0.0151367,0.169434,0.3613285,-0.053711,-0.135743,0.384766,-0.0565185,0.1633306,0.032227,-0.14410425,-0.1474613,0.1529542,0.1682125,-0.0898437,0.07022093,0.1701661,0.33789,0.1823728,0.00586,-0.1562501,-0.098633,-0.10124188,0.0932618,0.0610355,-0.2169194,-0.0288084,0.1948246,0.2304686,-0.1450196,0.034179,0.1879878,-0.07666,0.25469983,-0.1281738,-0.0814819,0.020508,-0.37934925,0.123169,0.010254,-0.04067989,0.124023,0.06442259,-0.04513552,0.05187989,0.18076306,-0.344239,0.2304691,-0.227539,-0.1098633,0.2939449,0.1189576,-0.206055,-0.0385742,-0.119141,-0.443359,-0.306641,-0.1333008,0.15806592,0.27002,-0.013672,-0.094727,-0.0539551,0.2167969,-0.032959,0.1176758,-0.354492,0.1711426,0.01043703,0.0161133,-0.0408935,-0.2495118,-0.384766,-0.1027832,-0.2023926,-0.458985,-0.0380861,0.209961,0.116699,0.1888433,-0.3789068,0.15017706,0.0195313,-0.1054689,0.048462,-0.11853027,-0.003906,-0.202881,0.008789,0.043946,-0.329102,0.1357422,-0.1091309,0.0639648,-0.1546635,0.2402342,0.3674313,0.1125488,-0.013672,-0.1394043,-0.09668,0.231445,-0.0512085
line_requires,-0.0723877,0.2172849,-0.14105231,0.0505371,0.2265621,-0.0053711,-0.2900393,-0.171875,0.0510257,0.2187498,-0.05426024,0.0207519,-0.01098628,-0.2030637,-0.3432613,-0.661133,0.2402347,-0.30957,0.425781,-0.1499023,0.345703,0.23584,0.1806646,-0.1659542,0.2211916,0.067749,0.065429,-0.026367,0.27043114,-0.2348633,-0.1594849,-0.0770264,-0.1459961,-0.0891113,0.043335,0.2460933,0.08044431,-0.1876219,0.104126,-0.1748052,-0.355469,-0.1534428,-0.1945802,-0.435547,0.0281982,0.2397459,-0.1442871,-0.0231933,0.0654297,0.2993165,0.333496,0.088185304,0.0681152,0.0874023,0.1469731,-0.2775875,0.1440428,0.1307376,-0.1157227,0.399414,-0.09866329,-0.0615232,0.0795897,0.150391,0.06543,0.0864258,-0.1250607,-0.1489261,0.5229488,0.517578,0.08734129,-0.1313482,-0.1479492,-0.255859,-0.24475085,0.075196,-0.145508,-0.1013187,0.2011716,-0.2145994,0.2587893,0.0644536,0.1879883,-0.0371093,0.1652836,0.2607418,0.1894534,0.17446912,-0.202149,-0.0835571,0.198242,0.2983394,-0.2932128,0.0864868,-0.242676,-0.027344,-0.078125,-0.1677242,-0.04220585,-0.117188,-0.0562744,0.043945,0.2338869,-0.0356447,0.345703,-0.1572264,0.0444336,0.17150923,0.293945,-0.067749,0.081055,-0.1224363,0.3730471,-0.109375,-0.06543,-0.171875,0.2075199,0.108399,-0.1360927,-0.031539895,-0.0875244,0.0740966,0.1011963,-0.048828,0.0917969,-0.040039,-0.328857,0.0793457,-0.1357424,-0.43573048,-0.00027465,-0.0092773,0.0036621,-0.1279297,0.0991211,-0.2119145,0.1394044,0.1743165,0.0905758,0.1191409,-0.243408,-0.0234375,0.2343753,0.255432,-0.0346682,0.006347,0.3706057,-0.079102,-0.053215,0.482422,-0.273437,-0.0473637,-0.1579593,0.1785887,-0.02716065,-0.1867679,-0.2707518,-0.0107422,0.456055,0.2216796,-0.3107908,0.1489263,0.0551758,-0.1450196,0.0111694,0.013973239,0.05026241,0.232422,-0.2368167,0.026856,-0.092773,0.1580808,0.2712407,-0.1513672,-0.06793217,0.1879881,0.04508971,0.0581055,-0.02002,-0.1068725,0.2373051,-0.2426754,-0.1157224,0.13955726,-0.026368,-0.2539064,0.19360364,0.1782226,-0.1224365,0.143677,0.321289,-0.2880859,0.17395045,-0.1124271,0.0966795,-0.024902,0.005127,0.342285,-0.024902,0.1840819,-0.335449,-0.2565919,0.0793457,-0.18469207,0.0560303,-0.0616455,-0.0090332,-0.1446537,-0.0593264,0.064209,-0.0979004,-0.1979976,-0.0849614,-0.0145264,0.186035,0.02551271,0.008789,-0.4013672,0.073242,-0.177734,0.1884769,0.1589352,0.1650396,0.1141357,0.1152349,-0.02795411,-0.237793,0.0700684,0.044922,-0.1325687,0.005371,0.25879,-0.2312016,-0.21289,-0.033973728,0.0021973,-0.1811522,0.1210941,0.0405274,-0.260254,-0.0058594,-0.22174097,-0.2534181,0.0717777,-0.088867,0.2343747,0.1499019,-0.3867187,-0.2587894,0.244141,-0.2370602,0.06497189,0.243896,0.0236816,0.1002808,-0.407715,0.0391845,0.1823734,0.2746578,-0.4016113,0.1716314,0.286133,-0.1286624,0.1313477,0.2775879,0.007813,0.0710449,0.2226562,-0.0029297,0.079102,-0.1191411,-0.2517092,-0.0705565,-0.3125,0.1621089,0.4677738,0.0566406,-0.2324218,0.1618039,0.1296383,0.1665039,0.1431884,-0.007813,-0.101074,-0.0693361,0.1284179,-0.0649414,0.0184326,-0.0078125,-0.403321,0.424805,0.1860355,-0.2540288,-0.108398,-0.03479007,-0.4311523,0.239746,0.0322266,0.0550538,-0.521484
line_remote,-0.0683594,0.1718749,0.31890869,-0.0249021,-0.1801759,-0.3193359,0.0673827,-0.0883179,-0.2033693,0.1584471,-0.22589124,0.0859379,0.17395032,-0.1074216,-0.375,-0.2087402,0.310059,-0.40918,0.1049805,0.0151368,0.0776367,0.0869139,0.1845706,-0.1688842,0.041016,0.1883547,0.009765,0.0708007,0.049804,0.0732427,-0.1477659,-0.1943359,0.2778317,0.0878911,0.1121822,0.788086,-0.04992679,0.2948001,0.1544185,-0.2114263,-0.203125,-0.193848,-0.1809082,-0.1768186,-0.116333,0.1420898,0.0456543,-0.2089846,-0.0253907,0.1459965,0.0351565,0.1635742,-0.2138675,0.2429204,0.473633,0.0739746,0.0815428,0.0026856,-0.1252442,-0.060547,-0.0131836,-0.0966794,-0.0667114,0.009766,0.1423341,0.243652,-0.333008,0.0039062,0.0803833,0.1599117,-0.14068641,-0.0869146,-0.1235351,-0.1850583,-0.02551265,0.235352,0.1108394,0.3596193,-0.09375,-0.2106934,-0.2255857,-0.3613284,0.0612793,-0.1052246,0.0637211,0.5625,0.2226564,0.301758,0.2275389,-0.2675779,-0.0478516,0.1086426,0.0368652,0.1597289,-0.282227,-0.296875,-0.546875,-0.003418,-0.0581665,0.1836548,0.0823977,0.000488,0.0640869,0.0290528,-0.293946,-0.448242,0.1210942,0.14416523,-0.166016,-0.0979004,-0.251465,0.048828,0.1572265,0.335938,0.1937258,0.024414,-0.1469731,0.38086,-0.0394135,0.0866696,0.1411131,0.0970457,0.2305908,0.1245121,0.052246,-0.291016,-0.2177731,0.0888671,0.0253907,0.16094952,0.12454246,-0.1259766,0.1979977,-0.4223633,-0.0737305,-0.246582,0.0795899,0.320801,0.1442868,-0.3261721,-0.170166,0.3337401,-0.24414,0.083984,-0.224121,-0.11373936,0.2543947,-0.431641,0.0390701,0.1508788,-0.05664,-0.1191407,0.0422363,0.1734008,0.0794678,-0.0579834,-0.101562,-0.208496,0.246094,-0.0292974,0.1501462,0.02709966,0.2639161,-0.1623535,0.1527097,0.00598145,-0.0507817,0.033203,-0.012696,0.069825,-0.2187496,-0.2237552,0.3854977,0.1655272,-0.2314451,-0.0134277,0.17424011,0.0112305,0.304687,-0.0255127,0.3505861,-0.000976,0.1616216,0.293946,-0.1209111,-0.399414,0.411133,0.1665039,-0.1531984,0.16009546,0.523438,-0.0087891,0.09289555,0.017578,0.1347655,0.0200197,0.1511233,0.1564942,-0.224609,-0.1708981,-0.474121,-0.1501469,0.02365112,0.09020993,-0.1123047,-0.1544193,-0.3771969,0.0179443,0.1672366,0.0563965,-0.060669,0.1320801,-0.0639653,0.095581,-0.138184,0.142334,0.0,0.0078125,0.207031,0.1923832,0.1066895,0.0986328,0.2128911,-0.0096436,0.429688,0.02392579,-0.1386718,0.0778809,0.0712892,0.1032713,-0.05664,0.1997075,-0.1882326,0.0751956,-0.0773926,-0.2451174,-0.0854491,-0.1499023,-0.0380855,-0.360352,-0.0491944,0.23333703,0.0004883,0.0961917,0.0776372,0.240722,-0.0908203,0.1496583,-0.1982424,0.069336,0.0625,0.1083984,-0.204346,-0.04479981,-0.0517579,-0.3579099,-0.1055909,0.1083984,-0.03833,0.2194827,0.0647583,0.436524,-0.2446292,0.0544434,0.3354492,0.1940922,0.1784669,0.2031252,0.0854488,-0.2202147,0.1645507,0.0122071,-0.0361327,0.023437,0.032226,0.4658207,-0.03997803,-0.03418,0.0216674,0.2050778,-0.0795895,-0.0819091,-0.087891,0.1811522,0.0922852,0.0275879,-0.0157471,0.0337524,0.128418,-0.23877,0.359375,-0.09082,-0.1806645,0.1287232,-0.09582517,0.0478517,0.474609,-0.0793457,-0.01751705,-0.2304685
line_sight,-0.2568363,-0.0688481,0.07623289,-0.1108401,0.3007811,-0.2050779,-0.2675783,-0.08181765,-0.1325683,-0.024414,-0.05889894,-0.0462952,0.12316932,-0.2802732,-0.107421,-0.329102,0.057617,-0.186035,0.044922,0.0483398,0.2338867,-0.017578,-0.1416015,0.0403443,0.1379396,0.0772705,-0.025391,0.0415038,0.092773,-0.0131835,0.1002811,-0.0493164,-0.1235351,0.0795901,0.1112062,0.1685787,-0.02795409,0.2274171,-0.0064697,-0.0249028,-0.156189,-0.1542362,-0.2570802,-0.2111814,0.165405,-0.0024414,0.0842289,-0.0527344,0.1467283,-0.2290035,0.1596682,0.0166016,-0.2441405,0.1320801,-0.202148,0.0881348,0.02539,0.0562745,-0.3020016,0.02832,0.1318356,-0.1760251,-0.3676763,0.056641,0.34961,0.1072999,0.040039,-0.1518551,0.118164,0.073242,0.20989959,-0.0959478,-0.1489258,-0.0683591,0.16638215,-0.033691,0.2158199,-0.0024414,0.058593,-0.0944824,0.0378418,0.0136719,-0.0957032,0.0195313,0.0258793,0.043945,-0.0507816,0.492188,0.1798094,0.1748051,-0.063477,0.1350098,-0.0511475,-0.0126343,0.231445,-0.2172852,-0.1621091,0.0305176,-0.0029297,0.34082,0.1912847,-0.248047,-0.0825191,-0.0522457,-0.421876,-0.2388914,-0.4111328,-0.06359867,0.242676,0.0146484,-0.071045,-0.251953,-0.0908199,0.0703129,0.041016,0.288086,0.0280762,0.2343751,0.1285553,-0.0422363,0.0297851,-0.01608281,0.0081788,0.316895,0.131836,-0.305664,-0.157714,0.0974121,-0.1367184,-0.17498748,0.02218626,0.081055,0.0690917,-0.1313477,-0.0541992,-0.0366215,0.265625,0.237793,-0.040714261,0.0654299,-0.232666,0.0729981,0.034668,-0.003906,-0.245117,-0.260254,0.2011717,-0.2758793,0.0800858,0.23220813,0.0566409,-0.2031247,0.0964357,0.20166,0.2830808,-0.1604009,-0.001953,0.185059,0.295899,0.0551758,-0.04463199,-0.2128907,-0.1335449,-0.2060547,0.03045653,0.1560063,0.1811523,0.15625,-0.1762698,-0.01416,-0.131347,-0.1285402,0.3444827,0.2084962,0.1669919,0.0264893,0.002948759,0.0805665,-0.277344,0.2612919,0.2412111,-0.0732418,-0.2192384,0.341797,0.106445,-0.1359865,-0.072266,0.2905273,0.1309816,-0.041992,0.237793,0.2578121,0.04675295,-0.0856937,0.1894535,-0.275879,-0.0046387,-0.164551,-0.1015621,-0.1352539,-0.183105,0.0961914,0.2131347,0.27331593,-0.0556637,-0.0445556,0.1521001,-0.0662842,-0.1154784,0.079834,0.2214359,-0.1511226,-0.12005659,0.1302491,0.315918,-0.0588379,0.0498044,0.0563965,0.035156,0.2099613,-0.0124511,0.0749511,-0.142578,0.0471191,0.1545415,0.04504399,-0.1345215,0.0383301,0.05957,0.0974123,0.1611331,0.0811773,-0.0290527,-0.089844,-0.0759278,0.1257325,0.050293,-0.2197269,-0.1108395,-0.339844,-0.1123047,0.01879883,0.168457,0.1547847,0.0776372,-0.180664,-0.2280271,0.3027343,-0.2197264,-0.1645507,-0.2456051,0.2939449,-0.074463,-0.3178711,0.0512696,-0.2060544,-0.1822507,0.0296631,0.1501468,-0.2307133,0.1025391,0.224609,-0.140137,-0.1040039,0.30340576,0.1523442,-0.0974121,0.1386722,-0.1457519,-0.142963284,-0.0273441,-0.1716312,-0.297851,-0.1706547,0.301757,0.4105228,0.0068359,-0.075195,0.0167846,0.1247555,0.0828857,-0.0819091,-0.021485,0.0268553,0.0844727,-0.1157225,0.120117,0.1474606,-0.0136719,-0.043946,0.227539,0.333985,-0.2790532,0.1376954,-0.06994627,-0.0882568,0.462891,-0.1472166,-0.2252195,-0.1455076
quality_looking,-0.287598,0.015625,-0.038574,0.05532837,0.1113281,0.10955857,0.018554,0.083374,0.1086426,0.0302732,-0.246094,-0.397461,0.41504,0.256836,-0.1542966,0.015625,0.1904297,-0.045899,-0.0513916,0.006835,0.012207,0.0468754,-0.048828,0.548829,-0.1805422,0.0908207,-0.040039,-0.1650393,-0.1197514,-0.0727535,0.03021238,-0.0180664,-0.0258789,-0.18774464,0.1242676,-0.0605473,-0.0935058,0.263184,-0.1015624,-0.12966956,-0.0930176,0.0629883,-0.1293947,-0.0031739,0.0596924,-0.175781,0.2595213,0.047363,0.00781253,-0.1103516,0.0340576,0.1513671,-0.0524902,-0.2651363,-0.003907,-0.1796875,-0.2019042,0.0,-0.091797,-0.1943361,0.434571,0.046875,-0.058594,-0.08042908,0.0576172,-0.0595703,-0.2084964,-0.21499653,0.3002927,0.2924808,0.0024414,-0.2031249,0.0942386,-0.1518554,0.050781,-0.0437012,-0.1015624,-0.0769043,-0.001709,0.076172,-0.1632081,0.06417852,-0.08377073,-0.202148,-0.06542966,0.01690678,-0.153809,0.1386722,-0.0341792,0.0644533,0.1899412,0.0688474,-0.022461,0.1875003,-0.1024778,-0.1291506,-0.496093,0.1816405,0.050293,-0.1352539,0.453125,0.417968,-0.2236327,-0.114502,-0.1696777,-0.0358887,-0.09375,0.1948243,-0.06805422,-0.1247558,0.0632327,0.308106,-0.249146,-0.0187988,0.15844764,-0.09668,-0.2368168,-0.092285,-0.2395016,-0.1362305,-0.2680665,0.2504879,0.0258789,0.103371042,0.2309572,0.0229492,-0.0917972,-0.014648,0.142578,-0.01983647,-0.0123291,0.550781,-0.032227,-0.189697,-0.1833492,-0.053711,0.1381837,-0.425781,0.005371,-0.1289062,-0.0744629,-0.1113282,0.0734253,-0.1445312,-0.1202396,-0.2409672,0.438476,0.110596,0.1213378,0.095468496,0.1196291,0.254527796,0.00293,0.0151367,-0.061523,-0.509766,0.046875,0.01342769,-0.02832,-0.237305,-0.3568731,-0.243164,-0.1491699,0.297851,-0.195557,0.0263672,-0.287109,-0.226702236,-0.1512452,-0.2167966,0.001953,0.0770263,0.0668945,-0.2071531,0.0769043,-0.0161133,-0.3598635,0.044922,-0.033203,-0.0266113,-0.2773442,0.0297854,0.05664,0.0338135,0.1999517,0.302734,0.078125,-0.307617,-0.381836,0.3041989,-0.04423527,-0.11206064,-0.364258,0.1311038,-0.012695,-0.173587674,0.01416,-0.1010743,0.0,0.0585939,-0.0007324,-0.022461,-0.0739745,0.10034208,-0.0415039,-0.1673581,-0.1572267,-0.11520395,0.0735474,-0.1933596,-0.2050783,-0.0916137,0.0883787,0.1193848,0.0748902,-0.2275387,0.3320315,0.04278566,-0.0859376,0.1021729,0.0495605,0.1467283,0.105468,0.091797,0.0100098,0.1220703,-0.0312504,0.1674806,0.11712634,0.0488892,-0.1220699,-0.058594,0.2573245,-0.1528325,-0.1885988,-0.0573734,-0.1833501,0.2137452,0.2348632,-0.1315921,-0.3100587,-0.469727,0.2290044,-0.003906,-0.0180665,-0.1520996,-0.1904294,-0.1625977,-0.426636,-0.1750487,0.1242681,-0.1341548,-0.0830076,-0.10257002,0.033371,-0.1022949,-0.0844727,-0.1141355,0.2583007,0.2363283,0.352539,-0.1997068,0.01058956,-0.0410156,0.2960208,0.039062,-0.1904297,-0.172363,0.334961,-0.1538086,-0.317383,-0.193359,-0.30072034,-0.152832,-0.2270512,0.0456543,-0.03125,-0.024414,-0.092285,-0.2561036,0.2910159,0.018555,0.5625,0.1215822,-0.2575686,0.2073976,0.0554199,-0.2026366,0.1107182,0.14038048,-0.004883,0.0986326,-0.421875,-0.0070801,0.020874,0.356201,-0.1635743,-0.325196,-0.069118481,0.0291138
quality_sound,-0.2323002,0.27804528,0.242188,0.06973267,0.235107,0.1516118,0.149658,-0.0633545,-0.0268555,0.0395506,-0.098633,-0.021485,0.1444096,0.1086428,-0.2265623,-0.05899052,0.097168,-0.114258,0.0858154,0.060546,-0.003418,-0.3803716,-0.149282393,0.3461919,-0.0947268,-0.022461,0.2000729,0.2265627,0.0545654,0.0483398,0.25408948,0.1149902,0.1923824,-0.309571,0.0666504,-0.0827641,-0.1081543,-0.043457,-0.0507812,-0.084473,-0.1948247,-0.0145874,-0.2631837,0.0270996,-0.0273433,-0.458984,0.305176,0.13623,0.01049803,-0.1508789,0.2341311,0.1364745,-0.06082155,-0.1342769,-0.11084,-0.1782227,0.1369629,0.036133,-0.00293,0.045898,0.2976078,0.328125,-0.220703,0.09082,-0.0483399,0.2783204,-0.17077668,-0.23648053,0.407226,0.1230469,0.0742192,-0.0405273,-0.231445,-0.0986327,0.060547,-0.0505371,-0.244141,0.0708007,-0.0197754,0.1826176,-0.0596924,0.01559452,-0.1787109,-0.0787349,-0.05249026,-0.17169152,-0.104493,0.15799744,0.3017578,0.2031252,0.521484,0.1571653,0.0781254,-0.0327149,-0.010254,-0.2568361,-0.24392663,0.088867,0.103027,0.1186523,0.020508,-0.088868,-0.0395507,-0.177979,0.1994633,0.013794,-0.201172,0.097168,-0.125,0.19043,0.291504,-0.013671,-0.252686,0.1296387,-0.049804,-0.0668948,0.1850582,-0.353516,0.3054204,0.0166016,-0.212891,0.425781,-0.1188965,0.0273441,0.273438,0.0200195,0.089843,0.029297,-0.280273,-0.0298462,0.239624,0.418457,-0.2083743,-0.0319824,-0.1179806,-0.2734377,0.2026368,-0.1364747,0.0405275,-0.1142582,-0.2058108,0.039062,0.1804199,-0.2788084,0.1322024,-0.026123,-0.001953,-0.0256347,0.0439452,-0.271718604,0.0258791,0.1955564,-0.0327149,0.096982034,-0.1896973,-0.1965336,0.17981,0.07849119,-0.02832,-0.0556644,-0.13086,-0.237305,0.0617672,0.328125,0.096436,0.1364742,-0.1486815,0.054687,-0.1317142,-0.26513647,-0.013672,0.2138671,0.1098633,-0.1540525,0.2543941,-0.1699219,-0.2270505,-0.0664066,-0.045898,0.0102539,-0.083985,0.0170894,0.024414,-0.0190429,-0.0844726,-0.0310059,-0.1601559,0.097657,-0.2797852,0.1262207,0.1137698,-0.0322267,-0.1081548,0.1379398,-0.19128412,-0.316165674,0.311523,0.0761717,0.1669922,-0.2558591,-0.0900879,-0.035156,0.223633,-0.04345702,-0.0430908,0.1500249,-0.2551271,-0.1348268,0.237305,-0.0400393,-0.09964002,-0.1160276,-0.2988283,0.1718754,0.1837767,-0.0288086,0.4147952,0.0596314,0.114258,0.1425782,-0.0488279,-0.0809326,-0.1516117,0.3256835,-0.0932621,0.1538086,-0.0449222,-0.0219727,0.0917967,-0.1589355,-0.2290035,-0.0989993,0.404297,-0.0751955,-0.040039,-0.0930174,-0.022461,0.3319092,0.0742186,0.1955569,-0.3208007,-0.293457,0.2368164,0.11436478,-0.1481934,0.0627445,-0.1586914,-0.1948247,-0.464844,-0.1871337,0.0341797,-0.1033938,0.0992432,-0.13674902,-0.0213623,0.1613772,-0.149292,0.03497314,-0.0854493,0.242188,-0.117188,-0.1787107,0.09713726,0.0781251,0.5,-0.197266,0.2724612,0.179688,0.431641,0.0566402,-0.1730955,0.251953,-0.39056434,-0.1469726,-0.0605473,0.1002197,0.0986329,-0.0893551,-0.1166994,-0.0456546,0.0214844,-0.000976,0.265625,0.1708986,-0.2719729,0.1950685,-0.0795901,0.4243164,0.036622,-0.069336,-0.0571291,-0.0625,-0.32217395,0.053833,-0.01745605,0.29461657,-0.0458985,-0.026368,-0.020534481,-0.1810911
quality_looking,-0.287598,0.015625,-0.038574,0.05532837,0.1113281,0.10955857,0.018554,0.083374,0.1086426,0.0302732,-0.246094,-0.397461,0.41504,0.256836,-0.1542966,0.015625,0.1904297,-0.045899,-0.0513916,0.006835,0.012207,0.0468754,-0.048828,0.548829,-0.1805422,0.0908207,-0.040039,-0.1650393,-0.1197514,-0.0727535,0.03021238,-0.0180664,-0.0258789,-0.18774464,0.1242676,-0.0605473,-0.0935058,0.263184,-0.1015624,-0.12966956,-0.0930176,0.0629883,-0.1293947,-0.0031739,0.0596924,-0.175781,0.2595213,0.047363,0.00781253,-0.1103516,0.0340576,0.1513671,-0.0524902,-0.2651363,-0.003907,-0.1796875,-0.2019042,0.0,-0.091797,-0.1943361,0.434571,0.046875,-0.058594,-0.08042908,0.0576172,-0.0595703,-0.2084964,-0.21499653,0.3002927,0.2924808,0.0024414,-0.2031249,0.0942386,-0.1518554,0.050781,-0.0437012,-0.1015624,-0.0769043,-0.001709,0.076172,-0.1632081,0.06417852,-0.08377073,-0.202148,-0.06542966,0.01690678,-0.153809,0.1386722,-0.0341792,0.0644533,0.1899412,0.0688474,-0.022461,0.1875003,-0.1024778,-0.1291506,-0.496093,0.1816405,0.050293,-0.1352539,0.453125,0.417968,-0.2236327,-0.114502,-0.1696777,-0.0358887,-0.09375,0.1948243,-0.06805422,-0.1247558,0.0632327,0.308106,-0.249146,-0.0187988,0.15844764,-0.09668,-0.2368168,-0.092285,-0.2395016,-0.1362305,-0.2680665,0.2504879,0.0258789,0.103371042,0.2309572,0.0229492,-0.0917972,-0.014648,0.142578,-0.01983647,-0.0123291,0.550781,-0.032227,-0.189697,-0.1833492,-0.053711,0.1381837,-0.425781,0.005371,-0.1289062,-0.0744629,-0.1113282,0.0734253,-0.1445312,-0.1202396,-0.2409672,0.438476,0.110596,0.1213378,0.095468496,0.1196291,0.254527796,0.00293,0.0151367,-0.061523,-0.509766,0.046875,0.01342769,-0.02832,-0.237305,-0.3568731,-0.243164,-0.1491699,0.297851,-0.195557,0.0263672,-0.287109,-0.226702236,-0.1512452,-0.2167966,0.001953,0.0770263,0.0668945,-0.2071531,0.0769043,-0.0161133,-0.3598635,0.044922,-0.033203,-0.0266113,-0.2773442,0.0297854,0.05664,0.0338135,0.1999517,0.302734,0.078125,-0.307617,-0.381836,0.3041989,-0.04423527,-0.11206064,-0.364258,0.1311038,-0.012695,-0.173587674,0.01416,-0.1010743,0.0,0.0585939,-0.0007324,-0.022461,-0.0739745,0.10034208,-0.0415039,-0.1673581,-0.1572267,-0.11520395,0.0735474,-0.1933596,-0.2050783,-0.0916137,0.0883787,0.1193848,0.0748902,-0.2275387,0.3320315,0.04278566,-0.0859376,0.1021729,0.0495605,0.1467283,0.105468,0.091797,0.0100098,0.1220703,-0.0312504,0.1674806,0.11712634,0.0488892,-0.1220699,-0.058594,0.2573245,-0.1528325,-0.1885988,-0.0573734,-0.1833501,0.2137452,0.2348632,-0.1315921,-0.3100587,-0.469727,0.2290044,-0.003906,-0.0180665,-0.1520996,-0.1904294,-0.1625977,-0.426636,-0.1750487,0.1242681,-0.1341548,-0.0830076,-0.10257002,0.033371,-0.1022949,-0.0844727,-0.1141355,0.2583007,0.2363283,0.352539,-0.1997068,0.01058956,-0.0410156,0.2960208,0.039062,-0.1904297,-0.172363,0.334961,-0.1538086,-0.317383,-0.193359,-0.30072034,-0.152832,-0.2270512,0.0456543,-0.03125,-0.024414,-0.092285,-0.2561036,0.2910159,0.018555,0.5625,0.1215822,-0.2575686,0.2073976,0.0554199,-0.2026366,0.1107182,0.14038048,-0.004883,0.0986326,-0.421875,-0.0070801,0.020874,0.356201,-0.1635743,-0.325196,-0.069118481,0.0291138
quality_sound,-0.2323002,0.27804528,0.242188,0.06973267,0.235107,0.1516118,0.149658,-0.0633545,-0.0268555,0.0395506,-0.098633,-0.021485,0.1444096,0.1086428,-0.2265623,-0.05899052,0.097168,-0.114258,0.0858154,0.060546,-0.003418,-0.3803716,-0.149282393,0.3461919,-0.0947268,-0.022461,0.2000729,0.2265627,0.0545654,0.0483398,0.25408948,0.1149902,0.1923824,-0.309571,0.0666504,-0.0827641,-0.1081543,-0.043457,-0.0507812,-0.084473,-0.1948247,-0.0145874,-0.2631837,0.0270996,-0.0273433,-0.458984,0.305176,0.13623,0.01049803,-0.1508789,0.2341311,0.1364745,-0.06082155,-0.1342769,-0.11084,-0.1782227,0.1369629,0.036133,-0.00293,0.045898,0.2976078,0.328125,-0.220703,0.09082,-0.0483399,0.2783204,-0.17077668,-0.23648053,0.407226,0.1230469,0.0742192,-0.0405273,-0.231445,-0.0986327,0.060547,-0.0505371,-0.244141,0.0708007,-0.0197754,0.1826176,-0.0596924,0.01559452,-0.1787109,-0.0787349,-0.05249026,-0.17169152,-0.104493,0.15799744,0.3017578,0.2031252,0.521484,0.1571653,0.0781254,-0.0327149,-0.010254,-0.2568361,-0.24392663,0.088867,0.103027,0.1186523,0.020508,-0.088868,-0.0395507,-0.177979,0.1994633,0.013794,-0.201172,0.097168,-0.125,0.19043,0.291504,-0.013671,-0.252686,0.1296387,-0.049804,-0.0668948,0.1850582,-0.353516,0.3054204,0.0166016,-0.212891,0.425781,-0.1188965,0.0273441,0.273438,0.0200195,0.089843,0.029297,-0.280273,-0.0298462,0.239624,0.418457,-0.2083743,-0.0319824,-0.1179806,-0.2734377,0.2026368,-0.1364747,0.0405275,-0.1142582,-0.2058108,0.039062,0.1804199,-0.2788084,0.1322024,-0.026123,-0.001953,-0.0256347,0.0439452,-0.271718604,0.0258791,0.1955564,-0.0327149,0.096982034,-0.1896973,-0.1965336,0.17981,0.07849119,-0.02832,-0.0556644,-0.13086,-0.237305,0.0617672,0.328125,0.096436,0.1364742,-0.1486815,0.054687,-0.1317142,-0.26513647,-0.013672,0.2138671,0.1098633,-0.1540525,0.2543941,-0.1699219,-0.2270505,-0.0664066,-0.045898,0.0102539,-0.083985,0.0170894,0.024414,-0.0190429,-0.0844726,-0.0310059,-0.1601559,0.097657,-0.2797852,0.1262207,0.1137698,-0.0322267,-0.1081548,0.1379398,-0.19128412,-0.316165674,0.311523,0.0761717,0.1669922,-0.2558591,-0.0900879,-0.035156,0.223633,-0.04345702,-0.0430908,0.1500249,-0.2551271,-0.1348268,0.237305,-0.0400393,-0.09964002,-0.1160276,-0.2988283,0.1718754,0.1837767,-0.0288086,0.4147952,0.0596314,0.114258,0.1425782,-0.0488279,-0.0809326,-0.1516117,0.3256835,-0.0932621,0.1538086,-0.0449222,-0.0219727,0.0917967,-0.1589355,-0.2290035,-0.0989993,0.404297,-0.0751955,-0.040039,-0.0930174,-0.022461,0.3319092,0.0742186,0.1955569,-0.3208007,-0.293457,0.2368164,0.11436478,-0.1481934,0.0627445,-0.1586914,-0.1948247,-0.464844,-0.1871337,0.0341797,-0.1033938,0.0992432,-0.13674902,-0.0213623,0.1613772,-0.149292,0.03497314,-0.0854493,0.242188,-0.117188,-0.1787107,0.09713726,0.0781251,0.5,-0.197266,0.2724612,0.179688,0.431641,0.0566402,-0.1730955,0.251953,-0.39056434,-0.1469726,-0.0605473,0.1002197,0.0986329,-0.0893551,-0.1166994,-0.0456546,0.0214844,-0.000976,0.265625,0.1708986,-0.2719729,0.1950685,-0.0795901,0.4243164,0.036622,-0.069336,-0.0571291,-0.0625,-0.32217395,0.053833,-0.01745605,0.29461657,-0.0458985,-0.026368,-0.020534481,-0.1810911
quality_Sound,-0.140625,0.099609,0.559082,0.37442067,0.168701,-0.218261,0.520508,0.0933838,-0.0561519,0.11688214,-0.11377,-0.2551275,-0.045898,0.324219,-0.18273901,0.1259764,-0.076172,0.024414,0.3099364,-0.292969,-0.1228027,-0.4799806,0.013672,0.3305669,-0.445313,-0.3291013,0.3348389,0.1479492,-0.1099854,-0.0717775,0.16326948,-0.168457,0.2998044,-0.178905987,0.2077635,-0.2133793,0.0146485,0.1036382,0.2651366,-0.0766605,0.1743163,-0.0644531,-0.1958009,0.0358886,-0.0581053,-0.579101,0.1484373,0.264648,-0.14953657,-0.1484379,0.2370601,0.058594,-0.5810547,-0.1386714,-0.311036,-0.2915035,0.0952148,-0.1688228,0.157715,0.213867,0.2847904,0.320313,-0.516602,-0.0043945,-0.3422849,0.3007814,0.042968,-0.34292653,0.3288572,-0.0727542,0.2226562,0.151367,0.11871369,-0.008789,-0.1254883,0.3051759,-0.233887,0.0419921,-0.0583497,0.1801762,0.0855713,0.17160022,-0.0349121,-0.09927321,-0.19580066,-0.25372352,-0.077149,0.181763,0.057129,0.403321,0.3710935,0.248047,-0.2841796,0.04962157,0.132324,-0.581055,-0.143066,0.2741698,0.023437,-0.1125488,0.0625,-0.208008,0.175781,0.0268554,0.1325684,-0.0637205,-0.142578,0.2609865,-0.2324219,-0.0727538,0.09967069,0.107422,-0.542969,0.1701661,-0.185547,-0.303711,0.0112305,-0.420899,0.1091304,-0.0889893,-0.3891603,0.17034875,0.0053711,0.1569828,0.47461,0.07348631,0.091797,0.001953,-0.1728516,0.0962528,0.0477295,0.597656,-0.09668,-0.162354,-0.0783688,-0.1477053,0.019531,-0.043945,0.1268312,0.0224609,-0.3581548,-0.386719,0.1774899,-0.2104494,-0.0048828,0.1154788,-0.067383,-0.39917,0.019531,-0.285390604,-0.0561523,0.030273,-0.138916,-0.021484,-0.102295,-0.2305912,0.0065918,0.09069829,-0.0859375,-0.2202152,-0.2714849,-0.1020507,-0.1105957,0.3647458,-0.166748,0.1589352,-0.2025145,0.002929,0.2178958,-0.459961,0.239258,0.0068359,0.0446777,-0.1118162,0.4819341,-0.1997067,0.1215825,0.053711,-0.064941,0.130127,-0.2055668,0.3798824,0.1729122,0.1192631,-0.0817871,0.068359,-0.17059289,-0.035644,-0.551758,0.08607482,0.3041988,0.251465,-0.404297,0.0153808,0.071289,-0.088626874,0.0517577,-0.0556641,-0.0385746,0.0122069,-0.4113773,-0.202148,0.15918,0.02661138,0.2358401,0.0865479,-0.21398945,-0.1782228,0.0510864,0.035156,-0.1411134,0.0130005,-0.1166993,0.1459961,0.2921757,-0.0327149,0.117188,0.0812988,0.046875,0.0516358,0.0446777,-0.2233887,-0.292969,0.488281,0.0910645,0.2622075,0.185547,-0.2270504,0.366211,-0.1530765,-0.302246,-0.226074,0.407227,-0.1645505,-0.2113649,0.1176758,-0.0493169,0.3084722,0.039062,0.3732909,-0.1870117,-0.048828,0.0073242,0.280762,0.1494142,0.0964355,0.019043,-0.2377927,-0.461426,-0.013672,0.3723141,0.1026612,0.2148434,-0.00234982,-0.2276616,-0.1813968,-0.244629,0.1641845,0.2241207,0.455078,0.09973113,-0.453125,0.03903196,0.2197268,0.448242,-0.128906,0.5419922,-0.286865,0.1948242,0.2675782,-0.384765,0.28418,0.08258056,-0.1801753,-0.1206059,-0.0571293,0.2246093,-0.2387692,-0.2578127,0.020752,0.2109379,0.124512,0.033203,-0.053711,-0.583985,0.3012697,-0.1381841,0.2836914,0.0776372,-0.244141,-0.00293,0.1020506,-0.073242,-0.0657959,-0.2583009,0.492187,-0.2817383,0.014648,-0.069118481,-0.1664431
quality_good,-0.3002933,0.208984,0.1370851,-0.07138063,0.0246582,0.1264043,0.15734845,-0.0985106,0.0893555,-0.032227,-0.1564944,-0.182618,0.1047368,-0.005859,-0.043945,-0.2402346,-0.130859,0.078125,0.2005614,0.008789,-0.0498047,-0.2719726,-0.116455,0.242188,-0.40625,-0.2089843,0.1278079,0.0334473,-0.0275879,0.0961303,0.11932348,0.0488891,-0.2089846,-0.0952153,-0.0842285,-0.272461,0.0209961,0.0488286,-0.012207,-0.1909183,-0.2924807,0.1972655,-0.453125,-0.02239994,0.1005859,-0.3847653,0.091797,0.2065425,-0.09533687,0.03125,-0.0344238,-0.045899,0.0356443,-0.1977535,0.1660153,-0.1367188,0.1955568,-0.029785,-0.017578,0.102539,0.3325199,-0.024414,0.035156,-0.0058594,0.0507813,-0.0820316,-0.2358402,0.11410547,0.548828,0.0344238,-0.1076661,-0.1066894,-0.020508,-0.2299804,0.119141,-0.1257324,-0.0458984,-0.1894533,-0.0524903,0.171875,0.0596924,-0.00350952,-0.08361814,-0.351074,0.06884764,0.15936248,-0.1479496,-0.008789,0.0764771,0.0810549,0.2016599,0.0810544,-0.08599857,0.1303711,-0.0781248,-0.0942385,-0.397461,0.024414,-0.07391361,0.1372073,0.2773436,0.08789,-0.0634764,0.0876464,-0.012207,-0.0222168,0.1385496,0.2846681,-0.0647583,0.001953,0.0791018,0.294434,-0.067383,0.1228028,-0.148437,-0.017578,-0.2006838,-0.1181643,0.0290527,0.0136719,-0.214356,0.2583004,-0.0955811,-0.039062,0.40625,0.1713867,-0.2214359,0.013672,-0.0655518,-0.0253296,0.344116,0.563476,-0.1411135,-0.064209,-0.12121545,-0.060547,0.080078,-0.370117,0.0476075,-0.1708982,0.0136719,-0.319336,-0.0734861,-0.0327148,0.2454834,0.0749508,0.428711,0.098877,-0.113281,0.154062396,-0.2680669,0.098633,0.118652,-0.266113,-0.061523,-0.2939457,-0.0491943,0.13854999,-0.1398926,-0.15307648,-0.246094,-0.239258,-0.1511231,0.3637693,-0.381104,0.2126462,-0.0893553,-0.119141,-0.1322022,-0.130859,0.069336,0.0342407,-0.121582,-0.18218969,0.05865479,-0.2656247,-0.2514645,-0.087891,-0.16717517,0.0185547,-0.07959,0.1591794,0.1719966,0.0660401,0.1540527,-0.0603027,0.103516,-0.1396482,-0.1652833,0.1821289,0.1313478,-0.318848,-0.0961919,0.0563968,-0.1765136,0.108638326,0.1403807,0.1181637,0.2246094,0.0224609,-0.1345215,0.047852,-0.1601562,0.02612308,-0.1083984,0.0972899,-0.06543,-0.118904208,0.1293945,-0.240235,-0.00293,-0.0901489,0.0927737,-0.0307617,-0.00628659,-0.1679688,0.164063,0.0788574,-0.2431641,-0.0966801,0.1752929,-0.0272217,-0.0595707,0.3120116,-0.0659179,0.1386719,-0.09661903,0.1347656,0.0959471,-0.1394045,-0.080078,-0.006348,0.003907,0.0932618,-0.2871095,0.05706023,0.040039,0.1883542,0.1865233,-0.1013181,-0.3530277,-0.432617,-0.0854492,0.10912339,-0.1655274,-0.0410156,-0.0948486,0.0056152,-0.142578,0.029297,0.0722656,-0.2386478,-0.0849606,-0.14358502,-0.0528564,0.1174312,-0.1743164,-0.0447998,0.112793,0.271485,0.242187,-0.1552732,0.13522326,0.0219727,0.2299807,0.1264647,-0.1148682,-0.038086,0.1246338,-0.0410157,-0.1116941,-0.025391,-0.07513424,-0.0476074,-0.2417,0.2163087,-0.0454101,0.074219,-0.072266,-0.1350096,-0.1188965,-0.0544429,0.38915253,0.066406,-0.2436526,0.2792971,0.1630859,-0.0645752,0.246582,0.1066891,-0.1597292,-0.067383,-0.149414,0.0067138,0.0314941,0.2443846,0.0582275,-0.023438,-0.001224521,0.0557251
quality_Sound,-0.140625,0.099609,0.559082,0.37442067,0.168701,-0.218261,0.520508,0.0933838,-0.0561519,0.11688214,-0.11377,-0.2551275,-0.045898,0.324219,-0.18273901,0.1259764,-0.076172,0.024414,0.3099364,-0.292969,-0.1228027,-0.4799806,0.013672,0.3305669,-0.445313,-0.3291013,0.3348389,0.1479492,-0.1099854,-0.0717775,0.16326948,-0.168457,0.2998044,-0.178905987,0.2077635,-0.2133793,0.0146485,0.1036382,0.2651366,-0.0766605,0.1743163,-0.0644531,-0.1958009,0.0358886,-0.0581053,-0.579101,0.1484373,0.264648,-0.14953657,-0.1484379,0.2370601,0.058594,-0.5810547,-0.1386714,-0.311036,-0.2915035,0.0952148,-0.1688228,0.157715,0.213867,0.2847904,0.320313,-0.516602,-0.0043945,-0.3422849,0.3007814,0.042968,-0.34292653,0.3288572,-0.0727542,0.2226562,0.151367,0.11871369,-0.008789,-0.1254883,0.3051759,-0.233887,0.0419921,-0.0583497,0.1801762,0.0855713,0.17160022,-0.0349121,-0.09927321,-0.19580066,-0.25372352,-0.077149,0.181763,0.057129,0.403321,0.3710935,0.248047,-0.2841796,0.04962157,0.132324,-0.581055,-0.143066,0.2741698,0.023437,-0.1125488,0.0625,-0.208008,0.175781,0.0268554,0.1325684,-0.0637205,-0.142578,0.2609865,-0.2324219,-0.0727538,0.09967069,0.107422,-0.542969,0.1701661,-0.185547,-0.303711,0.0112305,-0.420899,0.1091304,-0.0889893,-0.3891603,0.17034875,0.0053711,0.1569828,0.47461,0.07348631,0.091797,0.001953,-0.1728516,0.0962528,0.0477295,0.597656,-0.09668,-0.162354,-0.0783688,-0.1477053,0.019531,-0.043945,0.1268312,0.0224609,-0.3581548,-0.386719,0.1774899,-0.2104494,-0.0048828,0.1154788,-0.067383,-0.39917,0.019531,-0.285390604,-0.0561523,0.030273,-0.138916,-0.021484,-0.102295,-0.2305912,0.0065918,0.09069829,-0.0859375,-0.2202152,-0.2714849,-0.1020507,-0.1105957,0.3647458,-0.166748,0.1589352,-0.2025145,0.002929,0.2178958,-0.459961,0.239258,0.0068359,0.0446777,-0.1118162,0.4819341,-0.1997067,0.1215825,0.053711,-0.064941,0.130127,-0.2055668,0.3798824,0.1729122,0.1192631,-0.0817871,0.068359,-0.17059289,-0.035644,-0.551758,0.08607482,0.3041988,0.251465,-0.404297,0.0153808,0.071289,-0.088626874,0.0517577,-0.0556641,-0.0385746,0.0122069,-0.4113773,-0.202148,0.15918,0.02661138,0.2358401,0.0865479,-0.21398945,-0.1782228,0.0510864,0.035156,-0.1411134,0.0130005,-0.1166993,0.1459961,0.2921757,-0.0327149,0.117188,0.0812988,0.046875,0.0516358,0.0446777,-0.2233887,-0.292969,0.488281,0.0910645,0.2622075,0.185547,-0.2270504,0.366211,-0.1530765,-0.302246,-0.226074,0.407227,-0.1645505,-0.2113649,0.1176758,-0.0493169,0.3084722,0.039062,0.3732909,-0.1870117,-0.048828,0.0073242,0.280762,0.1494142,0.0964355,0.019043,-0.2377927,-0.461426,-0.013672,0.3723141,0.1026612,0.2148434,-0.00234982,-0.2276616,-0.1813968,-0.244629,0.1641845,0.2241207,0.455078,0.09973113,-0.453125,0.03903196,0.2197268,0.448242,-0.128906,0.5419922,-0.286865,0.1948242,0.2675782,-0.384765,0.28418,0.08258056,-0.1801753,-0.1206059,-0.0571293,0.2246093,-0.2387692,-0.2578127,0.020752,0.2109379,0.124512,0.033203,-0.053711,-0.583985,0.3012697,-0.1381841,0.2836914,0.0776372,-0.244141,-0.00293,0.1020506,-0.073242,-0.0657959,-0.2583009,0.492187,-0.2817383,0.014648,-0.069118481,-0.1664431
quality_good,-0.3002933,0.208984,0.1370851,-0.07138063,0.0246582,0.1264043,0.15734845,-0.0985106,0.0893555,-0.032227,-0.1564944,-0.182618,0.1047368,-0.005859,-0.043945,-0.2402346,-0.130859,0.078125,0.2005614,0.008789,-0.0498047,-0.2719726,-0.116455,0.242188,-0.40625,-0.2089843,0.1278079,0.0334473,-0.0275879,0.0961303,0.11932348,0.0488891,-0.2089846,-0.0952153,-0.0842285,-0.272461,0.0209961,0.0488286,-0.012207,-0.1909183,-0.2924807,0.1972655,-0.453125,-0.02239994,0.1005859,-0.3847653,0.091797,0.2065425,-0.09533687,0.03125,-0.0344238,-0.045899,0.0356443,-0.1977535,0.1660153,-0.1367188,0.1955568,-0.029785,-0.017578,0.102539,0.3325199,-0.024414,0.035156,-0.0058594,0.0507813,-0.0820316,-0.2358402,0.11410547,0.548828,0.0344238,-0.1076661,-0.1066894,-0.020508,-0.2299804,0.119141,-0.1257324,-0.0458984,-0.1894533,-0.0524903,0.171875,0.0596924,-0.00350952,-0.08361814,-0.351074,0.06884764,0.15936248,-0.1479496,-0.008789,0.0764771,0.0810549,0.2016599,0.0810544,-0.08599857,0.1303711,-0.0781248,-0.0942385,-0.397461,0.024414,-0.07391361,0.1372073,0.2773436,0.08789,-0.0634764,0.0876464,-0.012207,-0.0222168,0.1385496,0.2846681,-0.0647583,0.001953,0.0791018,0.294434,-0.067383,0.1228028,-0.148437,-0.017578,-0.2006838,-0.1181643,0.0290527,0.0136719,-0.214356,0.2583004,-0.0955811,-0.039062,0.40625,0.1713867,-0.2214359,0.013672,-0.0655518,-0.0253296,0.344116,0.563476,-0.1411135,-0.064209,-0.12121545,-0.060547,0.080078,-0.370117,0.0476075,-0.1708982,0.0136719,-0.319336,-0.0734861,-0.0327148,0.2454834,0.0749508,0.428711,0.098877,-0.113281,0.154062396,-0.2680669,0.098633,0.118652,-0.266113,-0.061523,-0.2939457,-0.0491943,0.13854999,-0.1398926,-0.15307648,-0.246094,-0.239258,-0.1511231,0.3637693,-0.381104,0.2126462,-0.0893553,-0.119141,-0.1322022,-0.130859,0.069336,0.0342407,-0.121582,-0.18218969,0.05865479,-0.2656247,-0.2514645,-0.087891,-0.16717517,0.0185547,-0.07959,0.1591794,0.1719966,0.0660401,0.1540527,-0.0603027,0.103516,-0.1396482,-0.1652833,0.1821289,0.1313478,-0.318848,-0.0961919,0.0563968,-0.1765136,0.108638326,0.1403807,0.1181637,0.2246094,0.0224609,-0.1345215,0.047852,-0.1601562,0.02612308,-0.1083984,0.0972899,-0.06543,-0.118904208,0.1293945,-0.240235,-0.00293,-0.0901489,0.0927737,-0.0307617,-0.00628659,-0.1679688,0.164063,0.0788574,-0.2431641,-0.0966801,0.1752929,-0.0272217,-0.0595707,0.3120116,-0.0659179,0.1386719,-0.09661903,0.1347656,0.0959471,-0.1394045,-0.080078,-0.006348,0.003907,0.0932618,-0.2871095,0.05706023,0.040039,0.1883542,0.1865233,-0.1013181,-0.3530277,-0.432617,-0.0854492,0.10912339,-0.1655274,-0.0410156,-0.0948486,0.0056152,-0.142578,0.029297,0.0722656,-0.2386478,-0.0849606,-0.14358502,-0.0528564,0.1174312,-0.1743164,-0.0447998,0.112793,0.271485,0.242187,-0.1552732,0.13522326,0.0219727,0.2299807,0.1264647,-0.1148682,-0.038086,0.1246338,-0.0410157,-0.1116941,-0.025391,-0.07513424,-0.0476074,-0.2417,0.2163087,-0.0454101,0.074219,-0.072266,-0.1350096,-0.1188965,-0.0544429,0.38915253,0.066406,-0.2436526,0.2792971,0.1630859,-0.0645752,0.246582,0.1066891,-0.1597292,-0.067383,-0.149414,0.0067138,0.0314941,0.2443846,0.0582275,-0.023438,-0.001224521,0.0557251
quality_Tuner,-0.432618,0.3398434,-0.039551,0.00421143,-0.204346,-0.226074,0.1206053,0.0567627,0.2055661,-0.009766,-0.1608889,-0.2999883,-0.064453,0.2285158,-0.2275388,-0.2548826,-0.025391,-0.155274,0.0062256,-0.0988775,-0.3149414,-0.3901366,0.09668,0.4250493,-0.314453,0.0009765,0.2762449,-0.0976563,-0.2349854,-0.2592775,0.45721448,-0.046875,-0.0986326,-0.307618,-0.0451665,0.305664,-0.3640139,0.463379,0.3764646,-0.301758,0.0429688,0.1367185,-0.411133,-0.2409669,0.1230469,-0.536132,0.493164,0.02246,-0.25988757,0.0290527,0.3903811,0.332031,-0.2392577,-0.2514644,0.1633297,-0.3706055,0.1433105,-0.1889644,0.1464846,-0.272461,0.109375,0.2038574,-0.048828,0.171875,0.1904297,0.2705074,-0.1895755,-0.13882453,0.423828,-0.2612302,-0.3076168,-0.1275329,-0.109375,-0.043945,-0.521484,0.0131836,-0.319336,0.2597657,0.111084,0.391114,-0.1866451,0.05416872,-0.0219726,-0.1782222,-0.35009766,-0.06817632,-0.2714848,0.0747073,0.4218748,0.1102297,0.699219,0.332031,0.1748044,-0.1972657,-0.1806638,-0.1921389,-0.2113033,0.3374022,0.195801,-0.5385747,0.2734373,0.069336,-0.364258,0.27124,-0.0812987,-0.0314941,0.12030004,0.1973878,0.0112304,-0.1185912,0.108215613,0.280762,-0.2480474,-0.0314941,-0.002929,-0.028321,0.1352542,-0.053711,0.1647954,0.1259763,-0.3862306,-0.03125,0.1684569,0.1689457,-0.097656,0.2778317,0.36914,-0.2165527,-0.1491699,0.0298461,0.0577393,0.476562,-0.2109377,-0.078857,-0.265625,-0.2014162,0.2597658,-0.363281,-0.010742,0.095581,-0.1457518,-0.371094,0.161377,-0.06246948,0.0107422,0.0246582,-0.182617,-0.444092,0.263183,-0.142812604,-0.3422849,0.13623,-0.08764652,0.305176,-0.2509766,-0.2807621,0.0344238,0.24499499,0.271484,0.170898,-0.515626,-0.12118524,-0.109375,0.4931638,-0.072998,0.048584,-0.234619,-0.413086,0.0435791,-0.050781,0.076172,0.1713871,-0.101563,0.091797,0.0109863,-0.3212887,0.0893555,0.232422,-0.0908202,-0.1608888,-0.303223,0.0390624,-0.036133,-0.2752689,-0.0147705,0.332031,-0.541015,-0.0688474,-0.2561036,-0.0009766,0.0405273,-0.344238,-0.05127,0.1174318,0.040039,0.154537326,-0.205078,-0.1923833,-0.0537106,-0.0136718,0.1774907,0.1422734,-0.0214843,-0.42456092,0.0825191,-0.0748291,0.114258,-0.1816407,-0.091797,0.125976,0.120117,-0.0623169,0.0581054,0.1533203,0.0934447,-0.10165407,0.121094,0.072876,-0.0935059,0.3085939,0.4882811,-0.2321777,0.023437,-0.017578,0.5332029,0.1186524,0.107422,-0.0341797,0.288086,0.048584,0.073243,-0.2177737,0.2280277,0.2612305,-0.1884767,0.0494995,-0.05127,0.2596432,0.03418,0.00952149,-0.2231447,-0.068359,0.3325194,0.431153,0.1523442,0.1804195,0.2216796,-0.2817387,-0.728516,-0.008789,-0.1062009,-0.0267334,0.2441404,0.10299678,-0.0714116,-0.2878418,-0.0968018,0.4639895,-0.1030273,0.1882325,-0.266602,-0.1796873,-0.05447384,0.0036622,0.475586,-0.084961,0.0644532,-0.1884763,0.250977,-0.1562501,-0.2036131,0.0449219,0.33795166,-0.4033203,0.033203,0.1782227,-0.0864257,-0.011718,-0.1781008,0.005127,0.0141602,-0.229003,0.516602,0.1386721,-0.360596,0.1303713,-0.1127931,0.1557614,0.1025395,0.020996,-0.282227,0.0603025,-0.163086,0.1339107,-0.1977539,0.431641,0.5034177,-0.2017827,0.123264719,0.1382449
quality_good,-0.3002933,0.208984,0.1370851,-0.07138063,0.0246582,0.1264043,0.15734845,-0.0985106,0.0893555,-0.032227,-0.1564944,-0.182618,0.1047368,-0.005859,-0.043945,-0.2402346,-0.130859,0.078125,0.2005614,0.008789,-0.0498047,-0.2719726,-0.116455,0.242188,-0.40625,-0.2089843,0.1278079,0.0334473,-0.0275879,0.0961303,0.11932348,0.0488891,-0.2089846,-0.0952153,-0.0842285,-0.272461,0.0209961,0.0488286,-0.012207,-0.1909183,-0.2924807,0.1972655,-0.453125,-0.02239994,0.1005859,-0.3847653,0.091797,0.2065425,-0.09533687,0.03125,-0.0344238,-0.045899,0.0356443,-0.1977535,0.1660153,-0.1367188,0.1955568,-0.029785,-0.017578,0.102539,0.3325199,-0.024414,0.035156,-0.0058594,0.0507813,-0.0820316,-0.2358402,0.11410547,0.548828,0.0344238,-0.1076661,-0.1066894,-0.020508,-0.2299804,0.119141,-0.1257324,-0.0458984,-0.1894533,-0.0524903,0.171875,0.0596924,-0.00350952,-0.08361814,-0.351074,0.06884764,0.15936248,-0.1479496,-0.008789,0.0764771,0.0810549,0.2016599,0.0810544,-0.08599857,0.1303711,-0.0781248,-0.0942385,-0.397461,0.024414,-0.07391361,0.1372073,0.2773436,0.08789,-0.0634764,0.0876464,-0.012207,-0.0222168,0.1385496,0.2846681,-0.0647583,0.001953,0.0791018,0.294434,-0.067383,0.1228028,-0.148437,-0.017578,-0.2006838,-0.1181643,0.0290527,0.0136719,-0.214356,0.2583004,-0.0955811,-0.039062,0.40625,0.1713867,-0.2214359,0.013672,-0.0655518,-0.0253296,0.344116,0.563476,-0.1411135,-0.064209,-0.12121545,-0.060547,0.080078,-0.370117,0.0476075,-0.1708982,0.0136719,-0.319336,-0.0734861,-0.0327148,0.2454834,0.0749508,0.428711,0.098877,-0.113281,0.154062396,-0.2680669,0.098633,0.118652,-0.266113,-0.061523,-0.2939457,-0.0491943,0.13854999,-0.1398926,-0.15307648,-0.246094,-0.239258,-0.1511231,0.3637693,-0.381104,0.2126462,-0.0893553,-0.119141,-0.1322022,-0.130859,0.069336,0.0342407,-0.121582,-0.18218969,0.05865479,-0.2656247,-0.2514645,-0.087891,-0.16717517,0.0185547,-0.07959,0.1591794,0.1719966,0.0660401,0.1540527,-0.0603027,0.103516,-0.1396482,-0.1652833,0.1821289,0.1313478,-0.318848,-0.0961919,0.0563968,-0.1765136,0.108638326,0.1403807,0.1181637,0.2246094,0.0224609,-0.1345215,0.047852,-0.1601562,0.02612308,-0.1083984,0.0972899,-0.06543,-0.118904208,0.1293945,-0.240235,-0.00293,-0.0901489,0.0927737,-0.0307617,-0.00628659,-0.1679688,0.164063,0.0788574,-0.2431641,-0.0966801,0.1752929,-0.0272217,-0.0595707,0.3120116,-0.0659179,0.1386719,-0.09661903,0.1347656,0.0959471,-0.1394045,-0.080078,-0.006348,0.003907,0.0932618,-0.2871095,0.05706023,0.040039,0.1883542,0.1865233,-0.1013181,-0.3530277,-0.432617,-0.0854492,0.10912339,-0.1655274,-0.0410156,-0.0948486,0.0056152,-0.142578,0.029297,0.0722656,-0.2386478,-0.0849606,-0.14358502,-0.0528564,0.1174312,-0.1743164,-0.0447998,0.112793,0.271485,0.242187,-0.1552732,0.13522326,0.0219727,0.2299807,0.1264647,-0.1148682,-0.038086,0.1246338,-0.0410157,-0.1116941,-0.025391,-0.07513424,-0.0476074,-0.2417,0.2163087,-0.0454101,0.074219,-0.072266,-0.1350096,-0.1188965,-0.0544429,0.38915253,0.066406,-0.2436526,0.2792971,0.1630859,-0.0645752,0.246582,0.1066891,-0.1597292,-0.067383,-0.149414,0.0067138,0.0314941,0.2443846,0.0582275,-0.023438,-0.001224521,0.0557251
issue_blemish,-0.097656,-0.3215337,-0.345703,0.41211,-0.347656,-0.2189945,0.2419432,0.170898,-0.236328,-0.300781,-0.33573951,-0.2106319,0.2846675,0.010742,-0.3950192,-0.326172,-0.405273,0.0187988,-0.1357419,0.292969,0.1083981,-0.10047918,0.2431641,0.1461181,0.088867,0.1018069,-0.17278246,-0.1606443,0.152344,-0.05664066,0.323731,0.1679688,-0.298000211,-0.0771484,-0.060547,-0.3811031,0.2716222,0.233886,0.044922,0.0917972,-0.271973,-0.006348,-0.2084957,0.12886829,-0.527344,0.05957,0.000976,-0.0507816,-0.12701422,0.295898,0.08920284,-0.1879886,-0.2795414,-0.1782228,-0.2758785,0.1038819,0.2412111,0.1988529,0.0563964,-0.105468,-0.1179195,-0.0979004,-0.2065427,0.6298828,0.159668,-0.0766603,-0.2412108,0.064454,0.0557862,-0.2553715,-0.1873169,-0.0703125,0.121582,0.01666261,-0.112304,-0.183106,-0.113282,0.224121,-0.1606446,0.2133789,0.10498,0.1225584,0.2722165,0.09259034,-0.025391,-0.007813,-0.2598881,-0.02285769,-0.0568848,0.0090332,0.238281,0.1396484,0.0024414,-0.1215822,-0.064453,0.3300785,0.1193848,-0.3896489,0.216309,0.030762,0.156494,0.0065918,-0.1874998,-0.3632814,-0.089844,0.100586,-0.389648,-0.2836918,0.2097172,0.182983,0.1787109,-0.1362307,0.09538269,0.348632,-0.0248599318,0.0607909,0.454102,0.12085,0.0549316,-0.3447271,-0.032959,-0.261231,-0.390625,0.10577411,-0.170899,0.1220703,-0.085693,0.402344,-0.2041014,-0.277343,0.318359,-0.0904541,-0.148193,-0.34437536,0.131393495,0.0678712,0.052246,-0.130127,0.0424804,0.1665039,0.619141,0.555664,-0.1054691,0.04248,-0.16979999,-0.1606445,-0.0402833,-0.1977539,0.1813965,-0.227051,-0.008301,0.436524,0.3754884,-0.311524,0.2099606,-0.07666,0.0014648,-0.055664,-0.0368652,0.2109379,0.432618,-0.2456055,-0.015625,-0.041015,-0.1837157,0.1271973,-0.01602173,0.217774,0.4375,-0.2473147,-0.3413085,-0.115417,-0.2700198,-0.1638186,0.3754882,-0.0902098,-0.195313,0.217773,-0.1928716,-0.005859,0.046875,0.1035157,-0.544922,0.0158691,0.947266,-0.5495603,-0.067383,0.116211,0.36294543,0.050781,0.413574,0.299805,-0.0600743356,-0.0078125,0.1489262,-0.1025386,-0.1857915,0.113281,0.2504885,0.2358403,-0.2545171,-0.068848,-0.32373,0.1037603,-0.1345214,0.1142578,0.4538575,0.2124028,0.217285,0.4570315,0.4279788,-0.2434083,0.0415034,-0.256348,-0.14739984,-0.0727535,0.34082,-0.1114506,0.422852,0.0559082,-0.133789,0.007812,0.1683347,0.03125,-0.046387,0.0196533,0.1755367,-0.0681152,-0.00570676,-0.0102539,-0.21289,0.301758,0.1798702,-0.131348,-0.0098114,0.057251,-0.0960693,0.01709,0.08630372,-0.0478516,-0.408203,-0.2006837,-0.395508,0.3874515,0.0527343,0.1145016,0.1645512,0.417968,0.1865233,0.1586914,-0.0747072,0.55126953,0.018555,0.01975247,0.272461,-0.1014409,0.168458,-0.1860355,0.1497798,0.149414,0.079956,-0.276367,-0.1762696,-0.135742,-0.395508,-0.101562,-0.1746829,0.0659182,-0.09961,0.128906,-0.060547,-0.0057373,0.0698242,-0.0229492,0.05230717,0.2309572,0.027832,-0.106445,-0.2377934,-0.295898,-0.23880799,-0.1318359,-0.120117,-0.046875,0.6416021,0.06543,-0.3330078,-0.1804197,0.2384031,0.3769534,-0.0668946,-0.0895995,0.0281982,0.092285,-0.342773,0.1665042,0.025391,0.3168944,-0.04826351,-0.0495606
issue_new,0.1322635,0.0167236,-0.2602541,0.3232427,-0.013672,0.0656735,0.398437,-0.025879,0.2260745,-0.091797,-0.3750004,-0.3193356,0.1943355,-0.0590823,-0.052734,0.293945,0.12133833,-0.0651852,-0.0180664,-0.1632079,0.2058102,-0.097335865,0.2553711,0.1491699,-0.0937504,-0.2067871,-0.09172826,-0.1245113,-0.231445,-0.1030274,0.239258,-0.0825195,0.033054389,0.0488281,0.015625,0.1892089,0.3242193,0.280273,0.1772462,0.0273442,-0.253418,0.037598,-0.0056152,0.007813,-0.4353032,-0.054688,0.0253904,-0.286133,0.06390378,0.1871337,-0.0058594,-0.0793457,0.0373535,-0.1848146,-0.1860355,0.0205078,0.1611329,0.1861569,-0.177002,-0.2163083,0.1623535,-0.040527,-0.0781247,0.0461426,-0.292481,0.1845703,-0.2807616,0.082032,0.0504151,-0.1489255,-0.2163086,-0.0927735,-0.0278321,-0.064209,0.353516,-0.137695,0.110351,-0.117188,0.0092773,0.06543,-0.206543,0.1040039,0.4033201,0.0603027,-0.304688,-0.0659182,-0.033204,-0.17227129,0.0788574,-0.0976565,0.3653561,0.1660156,0.1228027,0.1513668,-0.2305908,-0.0597534,0.017334,0.0840454,0.0944827,-0.1246339,0.0688475,0.05157468,-0.0891113,-0.10937503,0.225586,0.1689453,-0.2768554,-0.077149,0.15322913,0.0162354,0.0095215,-0.40918,0.1669922,0.1789546,-0.2637516318,-0.0662842,0.2705081,0.1994633,-0.0278316,0.0850510222,-0.0144043,0.025879,-0.0576176,0.0576174,-0.447266,0.04293826,-0.21582,0.1044921,0.0330811,-0.27832,0.213501,-0.0982666,0.007813,-0.05116276,-0.024124105,-0.1840818,-0.199707,0.1423339,-0.159668,-0.0149231,0.38795509,0.4497068,0.1252442,-0.1398927,-0.09118649,-0.0217285,-0.0886231,-0.0662842,-0.0847168,0.077637,0.2026368,0.278809,0.06970214,-0.18884327,-0.2402344,0.060791,-0.0571289,-0.130859,0.0147706,0.1096191,0.2365727,-0.1142579,0.525391,-0.1108394,-0.18298327,0.114502,-0.18933099,0.1450199,0.2106937,0.1628423,-0.05114749,0.052247,-0.08157351,0.0407715,-0.2241208,-0.1992186,0.1960449,-0.1247254,-0.0151372,0.0434572,-0.020507,0.0629883,-0.1108397,0.1977535,0.25692737,0.088623,-0.296875,0.228272,-0.09994557,0.3826902,0.234863,-0.2241207,-0.0472412,0.0200196,-0.02362056,0.0344239,0.0261231,0.2551268,0.315918,0.329102,-0.01812744,0.0773924,-0.193359,-0.0771484,0.046875,0.0194091,-0.02050786,-0.0444336,0.0517574,-0.1118164,0.1098633,-0.0866703,-0.1130371,0.0981444,-0.0849609,0.0009765,-0.149414,0.0787354,0.429688,-0.0380856,-0.1694336,0.2148436,0.01422118,0.21835358,0.0141601,0.1905513,0.435547,-0.0832523,0.12905924,0.1743164,0.015137,0.0595707,0.0233764,-0.097168,-0.03895566,0.0455322,-0.0567627,-0.0522463,-0.004066464,-0.236328,-0.1791992,0.069824,-0.2519528,-0.0151368,0.0247192,0.0510254,-0.0704346,0.026367,0.1076659,0.1311035,-0.1466066,-0.14111347,-0.0573727,-0.0469971,0.18786627,-0.245606,0.2285161,0.0202637,0.11575271,0.1055908,-0.0340576,-0.1330566,0.1118167,-0.3198243,-0.314453,0.0739751,0.1768801,-0.0195312,-0.078125,-0.2902835,-0.09375,0.0449219,-0.1728519,0.1191403,-0.06610103,0.0942383,-0.0483402,-0.159179,-0.1894534,-0.0532222,0.13228601,-0.1987302,0.2106933,0.113282,-0.0234379,-0.311523,-0.033203,0.2023923,-0.1590579,0.1555176,0.0961914,-0.1520995,0.1108398,0.1862795,-0.1791992,0.128418,-0.475586,-0.1728516,0.0,0.0705566
issue_blemish,-0.097656,-0.3215337,-0.345703,0.41211,-0.347656,-0.2189945,0.2419432,0.170898,-0.236328,-0.300781,-0.33573951,-0.2106319,0.2846675,0.010742,-0.3950192,-0.326172,-0.405273,0.0187988,-0.1357419,0.292969,0.1083981,-0.10047918,0.2431641,0.1461181,0.088867,0.1018069,-0.17278246,-0.1606443,0.152344,-0.05664066,0.323731,0.1679688,-0.298000211,-0.0771484,-0.060547,-0.3811031,0.2716222,0.233886,0.044922,0.0917972,-0.271973,-0.006348,-0.2084957,0.12886829,-0.527344,0.05957,0.000976,-0.0507816,-0.12701422,0.295898,0.08920284,-0.1879886,-0.2795414,-0.1782228,-0.2758785,0.1038819,0.2412111,0.1988529,0.0563964,-0.105468,-0.1179195,-0.0979004,-0.2065427,0.6298828,0.159668,-0.0766603,-0.2412108,0.064454,0.0557862,-0.2553715,-0.1873169,-0.0703125,0.121582,0.01666261,-0.112304,-0.183106,-0.113282,0.224121,-0.1606446,0.2133789,0.10498,0.1225584,0.2722165,0.09259034,-0.025391,-0.007813,-0.2598881,-0.02285769,-0.0568848,0.0090332,0.238281,0.1396484,0.0024414,-0.1215822,-0.064453,0.3300785,0.1193848,-0.3896489,0.216309,0.030762,0.156494,0.0065918,-0.1874998,-0.3632814,-0.089844,0.100586,-0.389648,-0.2836918,0.2097172,0.182983,0.1787109,-0.1362307,0.09538269,0.348632,-0.0248599318,0.0607909,0.454102,0.12085,0.0549316,-0.3447271,-0.032959,-0.261231,-0.390625,0.10577411,-0.170899,0.1220703,-0.085693,0.402344,-0.2041014,-0.277343,0.318359,-0.0904541,-0.148193,-0.34437536,0.131393495,0.0678712,0.052246,-0.130127,0.0424804,0.1665039,0.619141,0.555664,-0.1054691,0.04248,-0.16979999,-0.1606445,-0.0402833,-0.1977539,0.1813965,-0.227051,-0.008301,0.436524,0.3754884,-0.311524,0.2099606,-0.07666,0.0014648,-0.055664,-0.0368652,0.2109379,0.432618,-0.2456055,-0.015625,-0.041015,-0.1837157,0.1271973,-0.01602173,0.217774,0.4375,-0.2473147,-0.3413085,-0.115417,-0.2700198,-0.1638186,0.3754882,-0.0902098,-0.195313,0.217773,-0.1928716,-0.005859,0.046875,0.1035157,-0.544922,0.0158691,0.947266,-0.5495603,-0.067383,0.116211,0.36294543,0.050781,0.413574,0.299805,-0.0600743356,-0.0078125,0.1489262,-0.1025386,-0.1857915,0.113281,0.2504885,0.2358403,-0.2545171,-0.068848,-0.32373,0.1037603,-0.1345214,0.1142578,0.4538575,0.2124028,0.217285,0.4570315,0.4279788,-0.2434083,0.0415034,-0.256348,-0.14739984,-0.0727535,0.34082,-0.1114506,0.422852,0.0559082,-0.133789,0.007812,0.1683347,0.03125,-0.046387,0.0196533,0.1755367,-0.0681152,-0.00570676,-0.0102539,-0.21289,0.301758,0.1798702,-0.131348,-0.0098114,0.057251,-0.0960693,0.01709,0.08630372,-0.0478516,-0.408203,-0.2006837,-0.395508,0.3874515,0.0527343,0.1145016,0.1645512,0.417968,0.1865233,0.1586914,-0.0747072,0.55126953,0.018555,0.01975247,0.272461,-0.1014409,0.168458,-0.1860355,0.1497798,0.149414,0.079956,-0.276367,-0.1762696,-0.135742,-0.395508,-0.101562,-0.1746829,0.0659182,-0.09961,0.128906,-0.060547,-0.0057373,0.0698242,-0.0229492,0.05230717,0.2309572,0.027832,-0.106445,-0.2377934,-0.295898,-0.23880799,-0.1318359,-0.120117,-0.046875,0.6416021,0.06543,-0.3330078,-0.1804197,0.2384031,0.3769534,-0.0668946,-0.0895995,0.0281982,0.092285,-0.342773,0.1665042,0.025391,0.3168944,-0.04826351,-0.0495606
issue_new,0.1322635,0.0167236,-0.2602541,0.3232427,-0.013672,0.0656735,0.398437,-0.025879,0.2260745,-0.091797,-0.3750004,-0.3193356,0.1943355,-0.0590823,-0.052734,0.293945,0.12133833,-0.0651852,-0.0180664,-0.1632079,0.2058102,-0.097335865,0.2553711,0.1491699,-0.0937504,-0.2067871,-0.09172826,-0.1245113,-0.231445,-0.1030274,0.239258,-0.0825195,0.033054389,0.0488281,0.015625,0.1892089,0.3242193,0.280273,0.1772462,0.0273442,-0.253418,0.037598,-0.0056152,0.007813,-0.4353032,-0.054688,0.0253904,-0.286133,0.06390378,0.1871337,-0.0058594,-0.0793457,0.0373535,-0.1848146,-0.1860355,0.0205078,0.1611329,0.1861569,-0.177002,-0.2163083,0.1623535,-0.040527,-0.0781247,0.0461426,-0.292481,0.1845703,-0.2807616,0.082032,0.0504151,-0.1489255,-0.2163086,-0.0927735,-0.0278321,-0.064209,0.353516,-0.137695,0.110351,-0.117188,0.0092773,0.06543,-0.206543,0.1040039,0.4033201,0.0603027,-0.304688,-0.0659182,-0.033204,-0.17227129,0.0788574,-0.0976565,0.3653561,0.1660156,0.1228027,0.1513668,-0.2305908,-0.0597534,0.017334,0.0840454,0.0944827,-0.1246339,0.0688475,0.05157468,-0.0891113,-0.10937503,0.225586,0.1689453,-0.2768554,-0.077149,0.15322913,0.0162354,0.0095215,-0.40918,0.1669922,0.1789546,-0.2637516318,-0.0662842,0.2705081,0.1994633,-0.0278316,0.0850510222,-0.0144043,0.025879,-0.0576176,0.0576174,-0.447266,0.04293826,-0.21582,0.1044921,0.0330811,-0.27832,0.213501,-0.0982666,0.007813,-0.05116276,-0.024124105,-0.1840818,-0.199707,0.1423339,-0.159668,-0.0149231,0.38795509,0.4497068,0.1252442,-0.1398927,-0.09118649,-0.0217285,-0.0886231,-0.0662842,-0.0847168,0.077637,0.2026368,0.278809,0.06970214,-0.18884327,-0.2402344,0.060791,-0.0571289,-0.130859,0.0147706,0.1096191,0.2365727,-0.1142579,0.525391,-0.1108394,-0.18298327,0.114502,-0.18933099,0.1450199,0.2106937,0.1628423,-0.05114749,0.052247,-0.08157351,0.0407715,-0.2241208,-0.1992186,0.1960449,-0.1247254,-0.0151372,0.0434572,-0.020507,0.0629883,-0.1108397,0.1977535,0.25692737,0.088623,-0.296875,0.228272,-0.09994557,0.3826902,0.234863,-0.2241207,-0.0472412,0.0200196,-0.02362056,0.0344239,0.0261231,0.2551268,0.315918,0.329102,-0.01812744,0.0773924,-0.193359,-0.0771484,0.046875,0.0194091,-0.02050786,-0.0444336,0.0517574,-0.1118164,0.1098633,-0.0866703,-0.1130371,0.0981444,-0.0849609,0.0009765,-0.149414,0.0787354,0.429688,-0.0380856,-0.1694336,0.2148436,0.01422118,0.21835358,0.0141601,0.1905513,0.435547,-0.0832523,0.12905924,0.1743164,0.015137,0.0595707,0.0233764,-0.097168,-0.03895566,0.0455322,-0.0567627,-0.0522463,-0.004066464,-0.236328,-0.1791992,0.069824,-0.2519528,-0.0151368,0.0247192,0.0510254,-0.0704346,0.026367,0.1076659,0.1311035,-0.1466066,-0.14111347,-0.0573727,-0.0469971,0.18786627,-0.245606,0.2285161,0.0202637,0.11575271,0.1055908,-0.0340576,-0.1330566,0.1118167,-0.3198243,-0.314453,0.0739751,0.1768801,-0.0195312,-0.078125,-0.2902835,-0.09375,0.0449219,-0.1728519,0.1191403,-0.06610103,0.0942383,-0.0483402,-0.159179,-0.1894534,-0.0532222,0.13228601,-0.1987302,0.2106933,0.113282,-0.0234379,-0.311523,-0.033203,0.2023923,-0.1590579,0.1555176,0.0961914,-0.1520995,0.1108398,0.1862795,-0.1791992,0.128418,-0.475586,-0.1728516,0.0,0.0705566
phone_set,-0.0440063,-0.387696,-0.309082,-0.3100589,-0.2924805,-0.0136719,-0.1640628,-0.2260747,0.1269531,0.0515135,-0.001709,-0.1538088,-0.0443115,0.105957,0.318848,-0.03125,0.0625,-0.0047607,-0.15083325,0.069336,0.2871093,0.091309,0.1582031,-0.1486818,-0.2167974,0.0381469,-0.1430668,-0.088867,0.3432621,-0.1682131,0.0334473,0.0983887,-0.10900901,0.088867,0.4223637,0.007324,-0.159668,0.373047,-0.0490723,0.057129,-0.2397457,-0.0772705,-0.130497166,-0.1333011,-0.1010742,0.1689454,0.0146484,-0.0251465,-0.2895507,-0.314453,-0.0908199,-0.2019047,0.125183,0.2260742,0.06842046,0.073242,-0.0043945,0.413086,0.049805,0.0598144,0.0712887,0.13421659,-0.248536,0.591797,0.044922,0.11084,-0.199210933,0.182617,-0.0854492,0.2038571,0.2661129,-0.0782471,0.16696142,0.06786343,0.066407,0.1528934,-0.1479493,0.015625,0.2373048,-0.26005604,-0.0051269,0.2124028,-0.070312,0.0371094,-0.10141029,-0.0303955,0.1376956,0.1269534,-0.000976,0.3491215,-0.3310552,-0.1348873,-0.2934569,-0.3217778,-0.0909419,0.2792966,0.08018498,0.308106,0.234375,-0.175293,-0.1340331,-0.366211,0.10827643,0.500977,0.1877441,-0.0351562,0.0939941,-0.1347042,0.1762695,0.041015,0.1091309,-0.0668942,0.21807911,-0.256836,-0.0474853,0.016602,-0.229492,-0.045899,0.3160402,0.125732,-0.136565975,0.2519535,-0.458008,0.3686523,0.0712892,-0.149902,-0.1520996,0.3265377,0.002532962,0.1086426,-0.258301,-0.016602,-0.279297,-0.228516,0.0099487,-0.329102,0.223633,0.0949707,0.1484371,-0.048828,-0.04515078,-0.311523,-0.138062,0.1232915,0.0993649,-0.064453,-0.0236816,-0.2099614,-0.2377928,-0.1098555,0.2338867,0.2734376,-0.137207,0.10662848,0.154643575,0.0498046,-0.0732425,0.1733403,-0.03170774,0.2441406,-0.3277587,0.2172855,-0.04098512,-0.06420902,-0.18780555,0.0090332,-0.2968755,-0.3302002,-0.0041504,-0.0917972,0.269287,0.1800539,0.0619507,-0.2489012,-0.48632787,0.0986333,0.094726,0.2451177,-0.3132323,-0.0712891,-0.0566403,-0.0688473,-0.2313842,0.0292971,0.378662,0.2275393,0.0416259,0.14041156,-0.40625,0.1123047,-0.005371,-0.1194459,-0.458008,0.1726073,0.20883191,0.108398,-0.3127446,-0.05468755,0.0532227,0.0948486,-0.1343379,0.1589356,0.09375,0.0858154,-0.03454593,0.28418,-0.150147,-0.095459,-0.2924809,0.0438232,-0.0393066,-0.2524413,-0.07914735,-0.418335,0.1401367,0.2407225,-0.2800297,0.013672,-0.087891,0.12307692,0.1330566,0.2183228,-0.0646972,0.1140137,-0.0996093,0.319336,-0.13086,0.2178953,-0.2590335,0.0454102,0.281006,-0.092529,-0.3642574,-0.307617,0.1774905,-0.3715817,0.02099611,-0.1650394,-0.26162682,-0.072937,0.075196,0.0131836,-0.1245117,0.024414,0.099609,0.1938475,0.1942137,0.01351932,-0.0969238,0.0043946,0.0766599,0.091309,0.1353764,-0.256104,-0.121094,-0.0034179,0.1113284,-0.3427736,-0.1738282,-0.0748291,0.11035122,-0.1874999,-0.21919225,-0.1838381,-0.296875,0.28552259,-0.0575562,-0.0549315,-0.0997315,-0.2463376,-0.0019531,0.1259767,-0.1008305,-0.2849126,-0.08081058,-0.1138916,0.3820803,0.1220704,-0.060059,-0.040527,0.190186,0.1381836,0.1948239,-0.2441409,-0.2426758,-0.314453,0.193359,0.1428224,-0.2121585,-0.03711,0.0205078,0.1392827,0.0361329,-0.1545413,0.1247558,-0.035645,-0.18528773,-0.0391236,-0.09521488,0.167969
phone_purchased,-0.083313,0.009765,0.020996,-0.395508,0.0029297,0.0847165,-0.1604007,-0.1684571,-0.137695,0.0676267,-0.1625977,0.041504,0.396484,0.157715,0.0385742,0.041504,0.1768795,-0.1945802,0.068359,-0.2080076,0.1621093,0.1088872,0.1223144,-0.0837398,-0.0688477,-0.2000125,-0.2856449,0.1452024,0.640625,0.0681153,0.0319824,0.0808106,0.130371,-0.1772465,-0.1831053,-0.11444076,-0.1017456,0.416016,0.1428222,0.280762,-0.2685543,-0.3048094,-0.023563366,0.245117,0.0087891,0.3515624,-0.0330811,-0.0979003,0.024414,-0.1496583,-0.1997066,0.020752,0.0322265,0.4975582,0.1035157,0.2674562,-0.0324707,0.1850585,-0.1870116,0.1301269,-0.0213623,-0.16998341,-0.269043,0.088867,-0.2265622,0.337403,-0.017578,0.3659667,-0.036621,0.033203,-0.189454,0.1062013,0.0917966,0.06835173,-0.1862789,0.0532837,-0.0219727,0.355469,0.363281,-0.2792974,-0.2683104,0.3090818,-0.023437,-0.211426,-0.00448609,0.0065918,-0.0146484,-0.3222656,-0.231445,0.023438,0.1142578,-0.2227783,-0.3376464,-0.306641,0.0264893,0.1166992,0.09043888,0.1369629,0.156738,-0.0805664,-0.466797,-0.074218,0.243164,0.163086,0.029297,0.1437984,0.256836,-0.30957,0.250488,0.2460935,-0.0087891,-0.255859,-0.03558349,-0.3115237,-0.0709228,0.0410161,-0.0117184,-0.398438,-0.128906,0.1887203,-0.500976,0.2558598,-0.316406,0.3769531,0.347656,-0.0998535,-0.344727,0.0762939,-0.22875945,0.11962891,-0.0925295,-0.3300782,-0.018555,-0.291016,0.1134648,-0.067383,0.329101,0.156982,0.2412111,-0.536133,0.11256452,-0.1109619,0.084961,0.390626,-0.033204,0.1374515,-0.1909182,-0.16504,-0.251953,0.0835037,0.0625,0.2954103,-0.0041503,-0.01461792,0.360351,-0.1845704,0.147461,0.1083985,0.30569446,-0.0063476,-0.315204495,0.1013187,-0.09054562,-0.10034182,-0.1333012,0.0871582,-0.08728027,-0.2929687,-0.081543,0.009765,0.501953,0.1790769,-0.2402955,0.025391,-0.533447,-0.2236327,0.074218,0.2462163,-0.33819568,-0.0415039,-0.018554,-0.1546628,-0.124512,0.1623538,0.4865721,0.3339843,0.0111084,0.0537111,-0.013671,-0.0480958,-0.0522456,-0.0273439,-0.1640624,0.10235583,0.13558991,-0.015625,-0.576172,-0.15405305,-0.2231448,0.189575,-0.1177369,-0.026367,0.0619507,-0.0272217,0.38806127,0.2451176,-0.145264,-0.1032715,-0.1296387,-0.0844727,-0.0627442,-0.2065433,-0.1035156,-0.564453,-0.1210939,-0.196289,-0.1647947,-0.0978392,-0.230957,-0.10641508,0.3291011,0.026367,-0.1284179,0.0097657,0.0032959,0.024414,0.105468,0.21539282,-0.047852,0.3198242,-0.020752,-0.170654,-0.513672,-0.2144771,0.171387,-0.446289,-0.35150159,-0.06543,-0.360839,-0.1256709,0.2836919,0.0517578,-0.0219726,-0.2009274,0.052734,-0.1391605,0.094726,0.05331422,-0.2023928,0.2153322,-0.3330081,0.071289,0.0502934,-0.104248,0.17620862,-0.0131835,0.2648929,-0.286621,-0.0532837,-0.1645507,0.16357422,0.067383,-0.2108152,-0.1386721,-0.328125,0.3808595,-0.0383912,-0.0346678,-0.2319338,-0.1769407,-0.2200925,0.2106935,-0.012207,-0.420899,-0.10961908,0.0126954,0.33145167,0.05108647,0.204102,0.10678147,0.320313,-0.1079103,-0.1557621,0.0566411,-0.2045898,0.009766,0.1679687,-0.296875,0.0617675,0.317383,-0.1860356,0.129517,0.0195313,-0.34375,-0.3437499,-0.239258,-0.2534182,0.217529,-0.15332038,0.058594
quality_poor,-0.47461,0.007812,0.1604005,-0.10409533,0.05291743,-0.159668,0.2373045,-0.0155029,0.0991211,-0.000977,-0.136719,-0.3320318,0.009766,0.0837404,-0.17770361,-0.1235352,0.02832,0.1711423,0.3450924,-0.1063237,-0.0981445,-0.0889893,-0.294922,0.3829351,-0.556641,0.1025387,0.2762449,0.0285645,-0.104126,0.1567383,0.25018348,0.0939941,-0.2158206,-0.0815435,0.0426636,-0.420899,0.0549317,0.243653,0.036377,-0.1809086,-0.2407227,-0.0898438,-0.519531,0.0402832,-0.2426763,-0.259277,0.2122801,0.05664,0.10290543,-0.02307128,-0.0280762,0.1318358,-0.1042481,-0.1440425,0.1889645,-0.006836,0.4113768,0.00586,0.1495363,-0.0883791,0.2447514,-0.117188,0.060547,0.015625,0.0058594,0.0783692,-0.131348,0.04476927,0.433594,0.08084108,-0.044983,0.083984,0.232422,-0.374023,-0.089355,-0.2524411,-0.12414545,-0.1835943,-0.020752,0.001953,0.0814209,-0.25808678,0.1152344,-0.225585,-0.00634766,0.13690148,-0.133301,0.1885989,0.1870118,0.1127932,0.160156,0.027343,0.0283204,0.2832033,-0.0964353,-0.177639195,-0.402343,0.2377928,-0.1308594,-0.1152344,0.073242,0.1995846,0.071289,0.027832,0.0233765,0.03372194,0.031738,0.1826173,-0.0896607,0.078125,0.0375979,0.3295903,0.017578,0.2092281,0.000977,-0.026856,-0.2089848,0.128906,-0.0153809,-0.1591797,-0.011719,0.15405236,0.1821289,0.237305,0.414063,0.1503906,-0.045899,-0.005859,-0.1914063,0.1777958,0.132202,0.2543942,-0.108399,-0.0300293,-0.0585934,-0.0625,0.1989747,-0.2373048,0.208985,0.0499267,0.0146484,-0.169265872,-0.2014161,-0.2768554,0.0706787,0.2756348,0.197942546,-0.0236816,0.0576171,-0.080312704,-0.2719729,0.2946775,-0.1137696,-0.119629,-0.1203614,-0.265015,0.0948486,-0.07580571,-0.2392578,-0.020508,-0.19629,-0.1011962,-0.1750488,0.4105222,0.005127,0.0189209,-0.2695311,-0.09961,-0.0567627,0.148438,0.118164,0.0766601,0.1108398,-0.0947263,-0.0136719,-0.1889649,-0.2377925,-0.008789,-0.1575926,-0.0895998,-0.080567,0.1220704,0.16748,-0.2176509,0.1257327,-0.253906,0.051758,-0.2519529,-0.2478028,-0.0415041,0.0019531,0.067871,-0.28418,0.010498,-0.19165033,0.074459126,-0.012695,0.2148437,0.0604248,-0.2382811,0.1491697,0.0954594,0.042969,0.27465808,-0.1953129,0.1549069,-0.1372072,-0.1591798,0.243164,-0.0771487,0.055664,0.0787964,-0.1835943,0.0948486,-0.0266723,-0.0073242,0.2919924,0.0131836,-0.026856,0.1469727,0.2070311,0.0534663,-0.0729984,0.054687,-0.1240231,0.1503907,-0.270508,-0.0083008,0.067871,-0.1687015,-0.36914,-0.1064456,0.0625,0.006836,-0.2320558,0.1477051,-0.2304693,0.1893312,0.1778563,0.1682129,-0.3647457,-0.1416015,-0.1899416,0.211914,-0.0185547,0.0876465,-0.1831054,0.0844723,-0.101563,-0.1186522,-0.0402832,0.0823975,0.0533448,-0.06057742,-0.0274658,0.3391112,-0.382813,-0.2254635,0.1098633,0.0788575,0.24707,-0.2016599,-0.11379974,-0.0683592,0.2653811,0.217285,0.0742192,-0.054687,0.1190186,0.0507812,0.178711,-0.09082,0.18658466,0.0273438,-0.14427229,0.123291,-0.0075683,0.119141,-0.148926,-0.0622556,-0.2832031,0.095215,0.3212891,0.076172,0.080078,0.1337892,0.0251465,-0.2827146,0.1098637,0.344726,-0.2197268,0.012695,-0.044922,0.0880127,0.0288086,0.176758,0.1860347,-0.1464849,-0.080837281,-0.0358276
quality_drops,-0.3095707,0.1733395,0.273926,-0.00411983,0.1374511,0.1125493,0.475586,-0.1146236,-0.1391599,-0.165039,-0.088867,-0.418946,0.1640629,0.12338276,-0.072754,-0.0246582,0.286133,0.141113,0.1810304,-0.0856939,0.0590816,-0.3295896,-0.1766357,0.2875982,-0.2255862,0.0791017,0.1590579,0.0253906,0.0184326,-0.1606445,0.31658948,0.1313476,0.2773434,-0.027344,0.2067875,-0.1116948,0.1437991,-0.047363,-0.0795898,-0.134354013,-0.0864258,0.2617185,-0.492188,0.0861821,-0.0419923,-0.091796,0.2900389,0.569336,-0.48645057,0.3237301,0.1301269,0.319336,-0.0583191,-0.2495113,-0.166504,0.1918945,0.2219238,-0.150024,0.017578,-0.1567385,0.092774,0.0834961,-0.225586,0.12207,0.048584,0.0935059,-0.2326663,0.11996447,0.474609,0.1013184,-0.3203128,0.052734,-0.013672,-0.362305,-0.041016,-0.1577149,-0.1541747,-0.4667973,-0.0090332,0.032227,-0.0186768,0.44699122,-0.2431636,-0.0375972,-0.20166066,0.20721448,-0.322266,-0.021484,-0.0380862,-0.063476,0.120117,0.334961,0.1171874,-0.022461,0.031739,-0.2167971,-0.427734,0.057617,-0.1218262,-0.3647457,0.393555,0.353515,-0.244141,0.174072,-0.0466308,0.2653805,-0.105469,0.169922,0.2226561,-0.030762,-0.240722,0.3767095,-0.1542974,0.0418091,-0.029297,-0.2314456,0.0219722,-0.2939456,-0.0053711,-0.1772457,-0.43457,0.005859,-0.1733401,0.0092777,0.026367,0.0630493,-0.2602543,0.070313,-0.359375,0.0491333,0.0548096,0.4003903,-0.119141,0.0185547,0.011719,-0.098145,-0.010742,0.154297,0.376953,0.0457764,-0.1628418,0.069336,0.3317869,-0.1616211,-0.2398686,-0.2233882,0.026367,0.087158,0.0737303,0.142343396,-0.1953129,0.037109,0.008301,-0.087402,0.022461,-0.225098,-0.0386963,-0.13391101,0.05957,-0.2221683,-0.4086919,-0.0977783,-0.1745608,0.4914548,0.298584,0.0603027,-0.335937,-0.3232427,0.0072021,-0.046875,0.032227,0.1027832,0.186035,-0.2602537,0.2368161,-0.1875,-0.0666504,0.041015,-0.1878661,-0.2077638,0.039062,-0.0738526,0.2185054,-0.0179443,0.0759277,-0.1113281,-0.1978756,-0.2143552,-0.303223,0.0170898,-0.2377932,0.077637,-0.0891118,-0.1892092,-0.2294921,-0.173587674,0.414062,0.0512695,0.1142578,-0.0495605,-0.1936033,0.1387944,-0.1992187,0.07202148,-0.06527709,-0.01879878,0.039062,0.085449,0.0117187,-0.0970461,-0.229492,-0.1213986,0.1533207,-0.1079106,0.3351437,-0.1884766,0.4096682,0.1484373,-0.030273,0.2724609,0.1092529,-0.0766602,0.063476,0.3291014,0.0881348,0.1296387,-0.1835941,0.1694336,0.1179198,0.05175786,-0.1523433,-0.332032,0.075196,0.0217285,-0.135254,-0.0480954,-0.254883,0.2274172,0.006836,-0.1130371,-0.2807617,-0.483398,-0.2280276,0.1457521,-0.2265628,-0.0397339,0.1201176,-0.2055667,-0.4731448,-0.049805,0.1306151,0.3297122,-0.0405276,0.10739138,0.0872803,0.0036621,-0.303711,0.1256103,-0.2075193,0.014649,0.078735,-0.0963132,0.06491086,-0.0957032,0.142578,0.018066,-0.1064453,-0.1816404,-0.016602,0.0654292,0.024414,-0.103516,-0.09759534,0.1982427,-0.2260747,0.3471677,0.2568363,-0.1787106,-0.0625,-0.1857906,-0.0310058,-0.0568843,0.132812,0.2315676,-0.463867,0.510742,0.1096191,-0.2602536,0.1543583,0.339843,-0.319336,0.44043,-0.078125,-0.0804443,0.0187988,0.3099364,0.2309567,-0.279786,0.103732719,-0.1635131
